tree
version=v4
num_class=1
num_tree_per_iteration=1
label_index=0
max_feature_idx=24
objective=binary sigmoid:1
feature_names=RevolvingUtilizationOfUnsecuredLines age NumberOfTime30-59DaysPastDueNotWorse DebtRatio MonthlyIncome NumberOfOpenCreditLinesAndLoans NumberOfTimes90DaysLate NumberRealEstateLoansOrLines NumberOfTime60-89DaysPastDueNotWorse NumberOfDependents has_missing_income has_missing_dependents dependents_plus_one income_per_dependent debt_per_income utilization_per_credit_line real_estate_share total_past_due_events weighted_past_due_score any_past_due severe_past_due past_due_per_open_line utilization_times_debt is_senior is_young
feature_infos=[0:1.0924721602499976] [24:87] [0:4] [0:4998.0099999999948] [0:23000] [0:24] [0:3] [0:4] [0:2] [0:4] [0:1] [0:1] [1:5] [0:17416] [0:28781298.479999974] [0:0.99999990000000005] [0:0.5] [0:6] [0:11] [0:1] [0:1] [0:1] [0:2573.4578168443254] [0:1] [0:1]
tree_sizes=979 995 995 999 997 1000 1009 1007 998 995 1013 1004 1004 1006 1003 1006 1005 1007 1016 1008 1008 1003 1009 1007 1008 1007 1002 1006 1015 1006 1009 1011 1004 1002 1010 1004 1011 999 1009 1007 1008 1004 1007 1007 1004 1014 1007 1010 1008 1004 1017 1006 1010 1012 1000 1008 1017 1015 1011 1020 1007 1016 1020 1013 1019 1022 1008 1011 1003 1019 1009 1016 1009 1016 1007 1011 1008 1013 1011 1026 1011 1010 1022 1012 1010 1018 1013 1013 1019 1023 1003 1012 1023 1009 1016 1016 1020 1013 1014 1017 1022 1017 1018 1023 1012 1015 1015 1024 1032 1019 1018 1020 1024 1025 1017 1025 1007 1026 1029 1016 1017 1013 1025 1018 1011 1033 1020 1019 1016 1019 1018 1022 1016 1014 1022 1017 1027 1016 1019 1023 1023 1029 1023 1023 1029 1032 1026 1020 1018 1024 1024 1009 1028 1017 1018 1016 1024 1019 1025 1028 1023 1016 1018 1023 1018 1025 1021 1017 1022 1015 1025 1018 1015 1027 1025 1019 1025 1023 1016 1017 1020 1026 1016 1027 1018 1022 1017 1018 1026 1027 1021 1029 1017 1025 1013 1019 1016 1030 1020 1023 1015 1026 1023 1026 1016 1038 1030 1019 1030 1023 1017 1025 1012 1019 1026 1019 1019 1026 1026 1023 1019 1024 1017 1027 913 1020 1027 1026 1016 1016 1018 1020 1020 1024 1018 1019 1024 1018 1019 1024 1028 1027 1028 1022 1026 1017 1023 1026 1025 1022 925 1023 1025 1035 1026 1028 1030 1019 1024 1019 1024 1024 1035 1017 1012 1025 1030 1019 1012 1022 1019 1023 1016

Tree=0
num_leaves=8
num_cat=0
split_feature=17 0 18 0 0 0 18
split_gain=232647 56137 22363 10084.3 4760.54 3808.78 2391.92
threshold=1.0000000180025095e-35 0.38466258750000004 2.5000000000000004 0.48835881400000009 0.67268724700000015 0.14135262850000005 4.5000000000000009
decision_type=2 2 2 2 2 2 2
left_child=1 5 3 -2 -3 -1 -4
right_child=2 4 6 -5 -6 -7 -8
leaf_value=-2.60488140428691 -2.3801937850600567 -2.4393957159449227 -2.1738361176850152 -2.2148663718878856 -2.3380997288716241 -2.5319462413342397 -2.1092204265707379
leaf_weight=3659.893948957324 961.95307430624962 1061.6692123413086 1335.2817981541157 1229.8764262646437 1883.5603896975517 1465.1835817247629 2313.4695198386908
leaf_count=52048 8428 10829 5004 5835 14577 18240 5039
internal_value=-2.3746 -2.50759 -2.19084 -2.2874 -2.3746 -2.58403 -2.13285
internal_weight=13910.9 8070.31 5840.58 2191.83 2945.23 5125.08 3648.75
internal_count=120000 95694 24306 14263 25406 70288 10043
is_linear=0
shrinkage=1


Tree=1
num_leaves=8
num_cat=0
split_feature=17 0 18 0 7 0 0
split_gain=97821.1 34725.4 7871.47 3446.73 3115.48 2941.84 1605.84
threshold=1.0000000180025095e-35 0.3261624600000001 1.5000000000000002 0.22963553800000003 3.5000000000000004 0.67268724700000015 0.58645383550000008
decision_type=2 2 2 2 2 2 2
left_child=1 4 3 -2 -1 -3 -4
right_child=2 5 6 -5 -6 -7 -8
leaf_value=0.042071887863462297 0.14068931724924222 0.15725813079311515 0.28231197033609978 0.25693658975839584 0.21021133485630469 0.22443766136692139 0.32491421067017862
leaf_weight=4914.5795001611114 517.37961426377296 1568.0465766265988 1772.057115919888 1339.3005072697997 166.3544135093689 2434.9656103849411 4897.0751814544201
leaf_count=65581 4380 14018 5756 5857 1518 14577 8313
internal_value=0.201215 0.113926 0.294214 0.224558 0.0475831 0.198129 0.313601
internal_weight=17609.8 9083.95 8525.81 1856.68 5080.93 4003.01 6669.13
internal_count=120000 95694 24306 10237 67099 28595 14069
is_linear=0
shrinkage=0.0382273


Tree=2
num_leaves=8
num_cat=0
split_feature=17 0 18 7 1 0 0
split_gain=55587.1 23827.4 3830.5 2464.95 2229.99 1937.32 799.851
threshold=1.0000000180025095e-35 0.29979028450000006 1.5000000000000002 2.5000000000000004 52.500000000000007 0.69156422750000013 0.73254964450000015
decision_type=2 2 2 2 2 2 2
left_child=1 3 5 -1 -3 -2 -4
right_child=2 4 6 -5 -6 -7 -8
leaf_value=0.033917116187420181 0.14800838560604399 0.1776755271713166 0.21958543200299946 0.12956145907946237 0.12200449542424531 0.21995155637932184 0.24467474353540739
leaf_weight=4711.9986699819565 1234.5001590847969 3313.0302915275097 2790.2939674332738 429.54946804046631 1542.8479724898934 984.99604245275259 5673.8338248208165
leaf_count=61341 7458 18954 6799 4179 11220 2779 7270
internal_value=0.164056 0.0992661 0.224682 0.0419113 0.159992 0.179949 0.236408
internal_weight=20681.1 9997.43 10683.6 5141.55 4855.88 2219.5 8464.13
internal_count=120000 95694 24306 65520 30174 10237 14069
is_linear=0
shrinkage=0.0382273


Tree=3
num_leaves=8
num_cat=0
split_feature=17 0 18 7 0 0 18
split_gain=36552.8 17260.6 2376.24 1905.24 1877.98 1450.48 651.167
threshold=1.0000000180025095e-35 0.29979028450000006 1.5000000000000002 2.5000000000000004 0.51979327300000011 0.22963553800000003 3.5000000000000004
decision_type=2 2 2 2 2 2 2
left_child=1 3 5 -1 -3 -2 -4
right_child=2 4 6 -5 -6 -7 -8
leaf_value=0.031672767031254372 0.10162215494868815 0.097262078465811266 0.17914260545106564 0.11161823054955129 0.14846414620921841 0.16776940188970194 0.19955331131529627
leaf_weight=4850.1961290165782 652.99534228444099 1407.8222867026925 3588.2076202258468 478.49567773193121 4096.9765200391412 1887.2982788383961 6388.8265641480684
leaf_count=61341 4380 10632 7520 4179 19542 5857 6549
internal_value=0.139312 0.0878993 0.183807 0.0388546 0.135373 0.150773 0.192216
internal_weight=23350.8 10833.5 12517.3 5328.69 5504.8 2540.29 9977.03
internal_count=120000 95694 24306 65520 30174 10237 14069
is_linear=0
shrinkage=0.0382273


Tree=4
num_leaves=8
num_cat=0
split_feature=17 0 1 21 1 0 18
split_gain=26307.3 13060.8 1787.74 1719.19 1364.82 1027.77 238.263
threshold=1.0000000180025095e-35 0.29979028450000006 54.500000000000007 0.20942982456140355 62.500000000000007 0.38466258750000004 6.5000000000000009
decision_type=2 2 2 2 2 2 2
left_child=1 2 -1 5 -3 -2 -5
right_child=3 4 -4 6 -6 -7 -8
leaf_value=0.05804793921517068 0.11604381908234836 0.12399241372611949 0.014482322770920653 0.16082526478007739 0.067946360432220493 0.15194525313369289 0.17332974848289537
leaf_weight=2736.2651288956404 1872.6457961946726 5372.8067385032773 2769.903127938509 5070.694800965488 720.74418206512928 3100.2247544527054 4057.5776842236519
leaf_count=30859 7854 25458 34661 7084 4716 6353 3015
internal_value=0.121451 0.0788068 0.0361331 0.156529 0.117365 0.13843 0.166386
internal_weight=25700.9 11599.7 5506.17 14101.1 6093.55 4972.87 9128.27
internal_count=120000 95694 65520 24306 30174 14207 10099
is_linear=0
shrinkage=0.0382273


Tree=5
num_leaves=8
num_cat=0
split_feature=17 0 0 18 5 0 0
split_gain=20167.8 10270.8 1630.25 1497.14 1422.2 864.923 393.643
threshold=1.0000000180025095e-35 0.22963553800000003 0.50387791050000008 1.5000000000000002 8.5000000000000018 0.097369557500000023 0.48051456550000005
decision_type=2 2 2 2 2 2 2
left_child=1 4 -3 5 -1 -2 -5
right_child=3 2 -4 6 -6 -7 -8
leaf_value=0.012229918714861204 0.066695051931788985 0.072295012896589794 0.11267014764724574 0.12971299589560886 0.052518231634127027 0.1218993372767416 0.14639305983199108
leaf_weight=2852.7544668316841 493.72830817103386 2053.2438887134194 5080.6934822946787 2643.5890697538853 2323.1278807595372 2613.5323746427894 9728.8992269337177
leaf_count=35120 2940 14989 20138 5010 25447 7297 9059
internal_value=0.10783 0.0713093 0.101051 0.13687 0.0303138 0.113131 0.142831
internal_weight=27789.6 12309.8 7133.94 15479.7 5175.88 3107.26 12372.5
internal_count=120000 95694 35127 24306 60567 10237 14069
is_linear=0
shrinkage=0.0382273


Tree=6
num_leaves=8
num_cat=0
split_feature=17 0 0 18 23 0 18
split_gain=16188.6 8458.28 1725.38 1239.07 766.885 748.507 379.235
threshold=1.0000000180025095e-35 0.14419912550000002 0.50387791050000008 1.5000000000000002 1.0000000180025095e-35 0.79640865800000016 3.5000000000000004
decision_type=2 2 2 2 2 2 2
left_child=1 4 -3 5 -1 -2 -5
right_child=3 2 -4 6 -6 -7 -8
leaf_value=0.035891753381972577 0.086729765208656731 0.064153783611867091 0.1001971613023226 0.11855889094448757 0.0037972306213993703 0.12391589354659328 0.13202549759570376
leaf_weight=2605.2571606710553 2045.1723104864359 3005.229089781642 5486.1147503331304 4787.6155225038528 1868.0757951512933 1292.7218328714371 8553.8833264559507
leaf_count=29124 8004 23168 20138 7520 23264 2233 6549
internal_value=0.0970747 0.0650315 0.0874422 0.121981 0.0224896 0.101137 0.127194
internal_weight=29644.1 12964.7 8491.34 16679.4 4473.33 3337.89 13341.5
internal_count=120000 95694 43306 24306 52388 10237 14069
is_linear=0
shrinkage=0.0382273


Tree=7
num_leaves=8
num_cat=0
split_feature=17 0 0 0 18 1 0
split_gain=13462.2 6948.72 1424.14 1097.05 850.161 823.631 129.249
threshold=1.0000000180025095e-35 0.14135262850000005 0.61426273300000001 0.69156422750000013 3.5000000000000004 46.500000000000007 0.99999995000000019
decision_type=2 2 2 2 2 2 2
left_child=1 5 -3 4 -2 -1 -5
right_child=3 2 -4 6 -6 -7 -8
leaf_value=0.046422092405911913 0.087003577832414178 0.062189470714427583 0.092691750033122883 0.11514310121813859 0.11637608974542853 0.010527864649770215 0.12496472142542983
leaf_weight=1318.4550963118672 4055.5872016400099 4055.8758609816432 4992.2158847749233 8882.4713907539845 2236.6954943686724 3204.7461049407721 2547.7822078317404
leaf_count=13864 11811 27374 16272 8614 2146 38184 1735
internal_value=0.0883333 0.0596802 0.0790202 0.110274 0.0974471 0.0209918 0.117334
internal_weight=31293.8 13571.3 9048.09 17722.5 6292.28 4523.2 11430.3
internal_count=120000 95694 43646 24306 13957 52048 10349
is_linear=0
shrinkage=0.0382273


Tree=8
num_leaves=8
num_cat=0
split_feature=17 0 1 18 1 0 18
split_gain=11502.2 5796.62 1312.55 1057.13 703 593.08 299.865
threshold=1.0000000180025095e-35 0.14419912550000002 55.500000000000007 1.5000000000000002 46.500000000000007 0.22963553800000003 3.5000000000000004
decision_type=2 2 2 2 2 2 2
left_child=1 4 -3 5 -1 -2 -5
right_child=3 2 -4 6 -6 -7 -8
leaf_value=0.042856322552926533 0.056081879333475124 0.080562041327324044 0.048095759311178606 0.098102443649043386 0.010330397236417901 0.09134923965170276 0.10943584416381059
leaf_weight=1383.7450112402439 926.05222707986832 7039.8373941779137 2455.2331375330687 5345.6509096473455 3255.5663447901607 2827.1470637619495 9531.1355348080397
leaf_count=13998 4380 29231 14075 7520 38390 5857 6549
internal_value=0.0810605 0.055056 0.0721678 0.100789 0.0200329 0.0826501 0.105364
internal_weight=32764.4 14134.4 9495.07 18630 4639.31 3753.2 14876.8
internal_count=120000 95694 43306 24306 52388 10237 14069
is_linear=0
shrinkage=0.0382273


Tree=9
num_leaves=8
num_cat=0
split_feature=17 0 5 18 1 0 0
split_gain=10064.3 4954.55 1657.54 962.203 718.028 505.928 312.874
threshold=1.0000000180025095e-35 0.430707428 8.5000000000000018 1.5000000000000002 57.500000000000007 0.13300900650000003 0.48051456550000005
decision_type=2 2 2 2 2 2 2
left_child=1 2 -1 5 -3 -2 -5
right_child=3 4 -4 6 -6 -7 -8
leaf_value=0.0120771772524311 0.046914719475066306 0.079805635846577239 0.047863457043700118 0.086858025311297743 0.048670864253874714 0.082509610797429814 0.10008830855956584
leaf_weight=3888.3919369950891 714.23724442720413 5758.4918533414602 3682.7866614237428 3340.6727027446032 1334.1430803090334 3206.4093189686537 12150.64229631424
leaf_count=40601 3382 17473 31864 5010 5756 6855 9059
internal_value=0.0748966 0.0509927 0.029485 0.0929532 0.0739503 0.0760273 0.0972361
internal_weight=34075.8 14663.8 7571.18 19412 7092.63 3920.65 15491.3
internal_count=120000 95694 72465 24306 23229 10237 14069
is_linear=0
shrinkage=0.0382273


Tree=10
num_leaves=8
num_cat=0
split_feature=17 0 0 18 13 0 18
split_gain=8951.73 4354.11 1001.54 921.335 624.896 588.448 182.205
threshold=1.0000000180025095e-35 0.14135262850000005 0.77530584250000012 2.5000000000000004 2600.2500000000005 0.61426273300000001 6.5000000000000009
decision_type=2 2 2 2 2 2 2
left_child=1 4 -3 5 -1 -2 -5
right_child=3 2 -4 6 -6 -7 -8
leaf_value=0.039099503670643902 0.062688716017086615 0.051122675503440185 0.075161715706467416 0.088271928486941445 0.0085305903311813421 0.085278335040766942 0.097325070090719654
leaf_weight=1368.2753776535392 3125.9119612425566 5956.1518774181604 4409.1741809546947 7535.8798556029797 3418.7745721265674 3663.7460828125477 5759.855186611414
leaf_count=13966 9399 31783 11863 6999 38082 4864 3044
internal_value=0.0696074 0.0474235 0.0613493 0.0863424 0.017269 0.0748799 0.0921949
internal_weight=35237.8 15152.4 10365.3 20085.4 4787.05 6789.66 13295.7
internal_count=120000 95694 43646 24306 52048 14263 10043
is_linear=0
shrinkage=0.0382273


Tree=11
num_leaves=8
num_cat=0
split_feature=17 0 1 18 0 7 18
split_gain=8076.52 3772.69 1010.36 893.217 720.119 542.638 67.3554
threshold=1.0000000180025095e-35 0.11470287650000001 59.500000000000007 3.5000000000000004 0.48835881400000009 2.5000000000000004 6.5000000000000009
decision_type=2 2 2 2 2 2 2
left_child=1 5 -3 4 -2 -1 -5
right_child=3 2 -4 6 -6 -7 -8
leaf_value=0.010712895046681154 0.05883223077093417 0.06163715668400175 0.031659026457725524 0.08501832267220838 0.080122106338077467 0.058449702665232646 0.091235502686220674
leaf_weight=4124.06877938658 3588.2180485278368 9096.9662322849035 2005.6718567833304 4573.7143105268478 6591.412490144372 379.90604098886251 5906.3680793195963
leaf_count=45715 9844 35595 11558 3505 7913 2826 3044
internal_value=0.0650079 0.0442513 0.0562222 0.0806873 0.0726186 0.0147413 0.0885235
internal_weight=36266.3 15606.6 11102.6 20659.7 10179.6 4503.97 10480.1
internal_count=120000 95694 47153 24306 17757 48541 6549
is_linear=0
shrinkage=0.0382273


Tree=12
num_leaves=8
num_cat=0
split_feature=18 15 1 7 18 15 18
split_gain=7412.03 2766.82 1065.8 914.883 280.599 201.06 35.6163
threshold=1.5000000000000002 0.013246210044642858 55.500000000000007 3.5000000000000004 4.5000000000000009 0.05031345637500001 7.5000000000000009
decision_type=2 2 2 2 2 2 2
left_child=1 3 -3 -1 5 -2 -6
right_child=4 2 -4 -5 6 -7 -8
leaf_value=0.019135437821016427 0.065929941753801083 0.060122118976277457 0.036277673266415116 0.08685339193757205 0.081588404539244985 0.078867887151631413 0.086510114359230103
leaf_weight=5375.5994735360146 2665.7720095813274 11061.292587138712 3642.3112430721521 308.1284434646368 3856.0687782764435 5182.414793998003 5089.9545615166426
leaf_count=51261 4285 35905 17344 1421 2541 4745 2498
internal_value=0.0609518 0.0454603 0.0542159 0.0228088 0.0797572 0.0744747 0.0843901
internal_weight=37181.5 20387.3 14703.6 5683.73 16794.2 7848.19 8946.02
internal_count=120000 105931 53249 52682 14069 9030 5039
is_linear=0
shrinkage=0.0382273


Tree=13
num_leaves=8
num_cat=0
split_feature=17 1 7 18 5 15 18
split_gain=6973.05 2202.56 907.81 810.696 591.673 557.769 59.2678
threshold=1.0000000180025095e-35 57.500000000000007 3.5000000000000004 3.5000000000000004 8.5000000000000018 0.03118307783333334 6.5000000000000009
decision_type=2 2 2 2 2 2 2
left_child=1 2 -1 5 -3 -2 -5
right_child=3 4 -4 6 -6 -7 -8
leaf_value=0.045182448290386555 0.050351464651014498 0.0030141592812947949 0.098251809667414355 0.075786659984924606 0.030255929586942745 0.06970015266297272 0.081512405523678749
leaf_weight=11319.690434411168 3051.0596338957548 2378.1111014336348 491.46774188429117 4745.0058230906725 2284.0459387078881 7621.2583458125591 6111.5910832732916
leaf_count=56356 8196 20922 1445 3505 16971 9561 3044
internal_value=0.0573303 0.03861 0.0473919 0.0716543 0.0163608 0.0641695 0.079011
internal_weight=38002.2 16473.3 11811.2 21528.9 4662.16 10672.3 10856.6
internal_count=120000 95694 57801 24306 37893 17757 6549
is_linear=0
shrinkage=0.0382273


Tree=14
num_leaves=8
num_cat=0
split_feature=18 0 7 0 18 0 18
split_gain=6554.62 3565.14 1237.58 530.812 267.479 228.618 33.0641
threshold=1.5000000000000002 0.38466258750000004 2.5000000000000004 0.99999995000000019 4.5000000000000009 0.48835881400000009 10.500000000000002
decision_type=2 2 2 2 2 2 2
left_child=1 2 -1 -3 5 -2 -6
right_child=4 3 -4 -5 6 -7 -8
leaf_value=0.018023770696839386 0.056799723299183112 0.051740720000697918 0.062138247502495692 0.082112727392734924 0.074400649137065109 0.070746156509064698 0.079312446434631784
leaf_weight=8644.1565299108624 2472.2454563230276 10821.736424729228 1041.1401235386729 912.16060967743397 6121.602119371295 5664.2022038400173 3058.8563992679119
leaf_count=70811 4068 28701 5124 1295 3685 4962 1354
internal_value=0.0540733 0.0399336 0.0227669 0.0541028 0.071562 0.0665097 0.0760385
internal_weight=38736.1 21419.2 9685.3 11733.9 17316.9 8136.45 9180.46
internal_count=120000 105931 75935 29996 14069 9030 5039
is_linear=0
shrinkage=0.0382273


Tree=15
num_leaves=8
num_cat=0
split_feature=17 0 5 18 0 5 18
split_gain=6188.12 2790.92 1269.19 768.017 436.654 380.674 141.059
threshold=1.0000000180025095e-35 0.50387791050000008 8.5000000000000018 2.5000000000000004 0.79640865800000016 10.500000000000002 4.5000000000000009
decision_type=2 2 2 2 2 2 2
left_child=1 2 -1 4 -2 -3 -5
right_child=3 5 -4 6 -6 -7 -8
leaf_value=0.0060614950171128147 0.047110923374250581 0.046155696745881568 0.03402257833344445 0.064695363981258552 0.065664616843459644 0.065791937361497729 0.072572483321943826
leaf_weight=4725.8319651484489 4501.7458403110504 5829.8784499019384 4763.4000759422779 5213.2745762169361 3154.8113651424646 1918.842908218503 9249.7518549710512
leaf_count=42115 10806 15628 33441 5004 3457 4510 5039
internal_value=0.0511689 0.0339979 0.0200977 0.0645501 0.054757 0.0510195 0.0697339
internal_weight=39357.5 17238 9489.23 22119.6 7656.56 7748.72 14463
internal_count=120000 95694 75556 24306 14263 20138 10043
is_linear=0
shrinkage=0.0382273


Tree=16
num_leaves=8
num_cat=0
split_feature=18 0 7 0 0 18 18
split_gain=5882.89 2955.25 746.464 692.065 270.171 180.078 51.6855
threshold=1.5000000000000002 0.22963553800000003 3.5000000000000004 0.77530584250000012 0.73254964450000015 3.5000000000000004 6.5000000000000009
decision_type=2 2 2 2 2 2 2
left_child=1 2 -1 -3 5 -2 -6
right_child=4 3 -4 -5 6 -7 -8
leaf_value=0.013649505412558795 0.051594234839874221 0.037536225164976775 0.067829355849165066 0.054231931256415296 0.066230206313692697 0.06494015738594236 0.071401366280554754
leaf_weight=7346.2615647688508 2914.0498488694429 7479.8395707458258 391.26395810395479 7049.758062645793 6789.3698590993881 3008.7657681554556 4916.1995972841978
leaf_count=63437 4510 26771 1510 14213 5003 2289 2267
internal_value=0.0485363 0.0354747 0.0163905 0.0456375 0.0650344 0.0583754 0.0684029
internal_weight=39895.5 22267.1 7737.53 14529.6 17628.4 5922.82 11705.6
internal_count=120000 105931 64947 40984 14069 6799 7270
is_linear=0
shrinkage=0.0382273


Tree=17
num_leaves=8
num_cat=0
split_feature=18 0 0 13 18 0 18
split_gain=5594.82 2653.11 855.025 509.225 272.046 216.261 32.3759
threshold=1.5000000000000002 0.11470287650000001 0.69156422750000013 2600.2500000000005 4.5000000000000009 0.48835881400000009 8.5000000000000018
decision_type=2 2 2 2 2 2 2
left_child=1 3 -3 -1 5 -2 -6
right_child=4 2 -4 -5 6 -7 -8
leaf_value=0.028906468367120422 0.04802502304273696 0.032722861878395008 0.049953234241172206 0.003980182799696092 0.06455711813512939 0.061321457680126291 0.069103304465398349
leaf_weight=1690.1346015036106 2584.6326195895672 8533.3178818374872 8307.2863254398108 4109.8241653069854 4864.0240603685379 5825.5189638435841 4444.4199814349413
leaf_count=13807 4068 37409 16808 37907 2988 4962 2051
internal_value=0.0461348 0.0335432 0.0412228 0.0112444 0.0622237 0.0572361 0.0667289
internal_weight=40359.2 22640.6 16840.6 5799.96 17718.6 8410.15 9308.44
internal_count=120000 105931 54217 51714 14069 9030 5039
is_linear=0
shrinkage=0.0382273


Tree=18
num_leaves=8
num_cat=0
split_feature=17 0 5 18 0 23 18
split_gain=5360.89 2048.08 1063.26 725.913 483.567 334.414 57.2779
threshold=1.0000000180025095e-35 0.50387791050000008 8.5000000000000018 3.5000000000000004 0.79640865800000016 1.0000000180025095e-35 6.5000000000000009
decision_type=2 2 2 2 2 2 2
left_child=1 2 -1 4 -2 -3 -5
right_child=3 5 -4 6 -6 -7 -8
leaf_value=0.0040777701129199187 0.042380782186722268 0.045753840480665914 0.029099544058548626 0.060201734633955499 0.058172777650844144 0.024019139667990436 0.065739502002815281
leaf_weight=4888.9528395459056 6209.5885939002037 7032.1937189102173 5040.1485409960151 4911.7979221343994 5216.6549119949341 1213.5681227892637 6245.7315506339073
leaf_count=42115 12767 15998 33441 3505 4990 4140 3044
internal_value=0.0439286 0.0284741 0.0167794 0.0563657 0.0495913 0.0425556 0.0633025
internal_weight=40758.6 18174.9 9929.1 22583.8 11426.2 8245.76 11157.5
internal_count=120000 95694 75556 24306 17757 20138 6549
is_linear=0
shrinkage=0.0382273


Tree=19
num_leaves=8
num_cat=0
split_feature=18 0 0 1 18 0 18
split_gain=5146.28 2231.28 750.524 392.077 273.482 205.622 31.7161
threshold=1.5000000000000002 0.097369557500000023 0.70211363250000014 57.500000000000007 4.5000000000000009 0.48835881400000009 10.500000000000002
decision_type=2 2 2 2 2 2 2
left_child=1 3 -3 -1 5 -2 -6
right_child=4 2 -4 -5 6 -7 -8
leaf_value=0.018054218145612574 0.043550219884810761 0.029228237256289744 0.044960539236631722 -0.0024068561973795981 0.060339477702994797 0.056413742142713282 0.06511588126180054
leaf_weight=3052.575828500092 2634.6536550968885 9358.2983018606901 8419.3777543008327 2480.5583026781678 6201.4689920693636 5869.3198910057545 3078.9433002769947
leaf_count=24291 4068 40834 16472 24334 3685 4962 1354
internal_value=0.0418974 0.0300812 0.0366793 0.0088815 0.057385 0.0524293 0.0619252
internal_weight=41095.2 23310.8 17777.7 5533.13 17784.4 8503.97 9280.41
internal_count=120000 105931 57306 48625 14069 9030 5039
is_linear=0
shrinkage=0.0382273


Tree=20
num_leaves=8
num_cat=0
split_feature=18 0 5 0 18 0 18
split_gain=4937.15 2035.38 627.747 483.453 277.496 199.268 31.6683
threshold=1.5000000000000002 0.22963553800000003 6.5000000000000009 0.77530584250000012 4.5000000000000009 0.48835881400000009 7.5000000000000009
decision_type=2 2 2 2 2 2 2
left_child=1 2 -1 -3 5 -2 -6
right_child=4 3 -4 -5 6 -7 -8
leaf_value=-0.0020493066030514346 0.04155991610835643 0.030131348019829609 0.020533994122395448 0.043647109815851355 0.057252596543745274 0.054186837366258983 0.061795069019213264
leaf_weight=2689.0340001583099 2654.8831944018602 7978.6436890661716 5432.1200780421495 7509.472062304616 4008.9186532199383 5876.7684294730425 5230.8064930438995
leaf_count=25031 4068 26771 39916 14213 2541 4962 2498
internal_value=0.0400136 0.0285573 0.0130564 0.0366849 0.0552329 0.0502584 0.0598252
internal_weight=41380.6 23609.3 8121.15 15488.1 17771.4 8531.65 9239.73
internal_count=120000 105931 64947 40984 14069 9030 5039
is_linear=0
shrinkage=0.0382273


Tree=21
num_leaves=8
num_cat=0
split_feature=18 0 7 0 18 0 18
split_gain=4745.2 1856.99 807.807 427.772 281.647 193.719 31.3158
threshold=1.5000000000000002 0.29979028450000006 3.5000000000000004 0.99999995000000019 4.5000000000000009 0.49634532450000007 7.5000000000000009
decision_type=2 2 2 2 2 2 2
left_child=1 2 -1 -3 5 -2 -6
right_child=4 3 -4 -5 6 -7 -8
leaf_value=0.011093708827723111 0.039770202222977669 0.033858612058411106 0.060695368854170879 0.05951719475914171 0.055332312465231709 0.05215879197826926 0.059861041584441443
leaf_weight=8798.4131534323096 2699.0583552867174 13558.522319510579 507.33515311777592 1021.1898986697197 3989.8394630551338 5848.1773656159639 5194.0848328024149
leaf_count=68835 4098 34123 1678 1295 2541 4932 2498
internal_value=0.0382628 0.0271409 0.0137989 0.0356564 0.0532447 0.0482475 0.0578946
internal_weight=41616.6 23885.5 9305.75 14579.7 17731.2 8547.24 9183.92
internal_count=120000 105931 70513 35418 14069 9030 5039
is_linear=0
shrinkage=0.0382273


Tree=22
num_leaves=8
num_cat=0
split_feature=17 0 5 18 0 5 18
split_gain=4596.91 1443.07 849.41 695.639 405.681 318.906 56.701
threshold=1.0000000180025095e-35 0.50387791050000008 8.5000000000000018 3.5000000000000004 0.79640865800000016 10.500000000000002 6.5000000000000009
decision_type=2 2 2 2 2 2 2
left_child=1 2 -1 4 -2 -3 -5
right_child=3 5 -4 6 -6 -7 -8
leaf_value=0.0020135078622949636 0.035338721062064565 0.030100698676052234 0.023843353298272783 0.052112816231447485 0.049655786903961607 0.046997663637822346 0.057661323557588143
leaf_weight=5063.4087306708097 6418.459308847785 6556.8293498307467 5364.0986393690109 4865.3814531266689 5268.3636767268181 2174.2576376050711 6100.4583188742399
leaf_count=42115 12767 15628 33441 3505 4990 4510 3044
internal_value=0.0366269 0.0228438 0.0132434 0.0482838 0.0417934 0.0343092 0.0552003
internal_weight=41811.3 19158.6 10427.5 22652.7 11686.8 8731.09 10965.8
internal_count=120000 95694 75556 24306 17757 20138 6549
is_linear=0
shrinkage=0.0382273


Tree=23
num_leaves=8
num_cat=0
split_feature=18 0 1 1 18 0 18
split_gain=4426.46 1635.44 706.348 375.994 286.269 188.091 31.8736
threshold=1.5000000000000002 0.097369557500000023 53.500000000000007 33.500000000000007 4.5000000000000009 0.48835881400000009 10.500000000000002
decision_type=2 2 2 2 2 2 2
left_child=1 3 -3 -1 5 -2 -6
right_child=4 2 -4 -5 6 -7 -8
leaf_value=0.039274124568598176 0.036345662435313397 0.034921399947408727 0.018693733374205417 0.0037568416028892072 0.052862848460454977 0.048554065636480973 0.057715038103788308
leaf_weight=474.74848093092442 2697.6289550513029 13043.981860645115 5604.473360016942 5258.4000764265656 6052.7630794793367 5848.8702274113894 2981.9896384775639
leaf_count=3408 4068 35401 21905 45217 3685 4962 1354
internal_value=0.0350984 0.0245552 0.0300446 0.00669892 0.0497193 0.0447013 0.0544653
internal_weight=41962.9 24381.6 18648.5 5733.15 17581.3 8546.5 9034.75
internal_count=120000 105931 57306 48625 14069 9030 5039
is_linear=0
shrinkage=0.0382273


Tree=24
num_leaves=8
num_cat=0
split_feature=18 0 1 0 18 0 18
split_gain=4273.47 1484.02 638.247 349.181 290.518 183.62 31.7885
threshold=1.5000000000000002 0.097369557500000023 53.500000000000007 1.0000000180025095e-35 4.5000000000000009 0.48835881400000009 7.5000000000000009
decision_type=2 2 2 2 2 2 2
left_child=1 3 -3 -1 5 -2 -6
right_child=4 2 -4 -5 6 -7 -8
leaf_value=0.026586219834142753 0.034828504052342286 0.033179994486776353 0.017826891621632528 0.0020198555201903189 0.050319870424329512 0.046883207313354228 0.054936552094440927
leaf_weight=1029.2852005884051 2707.3323827832937 13200.613159798086 5651.398298420012 4732.2455532103777 3902.2432546168566 5826.1940274089575 5042.0777147263288
leaf_count=8099 4068 35401 21905 40526 2541 4962 2498
internal_value=0.033653 0.0233886 0.0285777 0.00640918 0.0481077 0.0430595 0.0529233
internal_weight=42091.4 24613.5 18852 5761.53 17477.8 8533.53 8944.32
internal_count=120000 105931 57306 48625 14069 9030 5039
is_linear=0
shrinkage=0.0382273


Tree=25
num_leaves=8
num_cat=0
split_feature=17 1 0 18 0 5 18
split_gain=4141.4 1205.84 769.18 684.375 379.967 279.431 58.1359
threshold=1.0000000180025095e-35 63.500000000000007 0.77530584250000012 3.5000000000000004 0.79640865800000016 8.5000000000000018 6.5000000000000009
decision_type=2 2 2 2 2 2 2
left_child=1 2 -1 4 -2 -3 -5
right_child=3 5 -4 6 -6 -7 -8
leaf_value=0.017961584329973 0.031011601319359452 -0.012795627461870396 0.035558585945781263 0.047393314373246447 0.044836928523852744 0.0098990833574253284 0.053081614449329517
leaf_weight=11202.191286116838 6524.2715837210417 1672.1806137934327 5370.4246328026056 4768.1270955502987 5239.9867972880602 1507.3182483837008 5903.6317132264376
leaf_count=61177 12767 14253 10286 3505 4990 9978 3044
internal_value=0.0322923 0.0195272 0.0236642 0.0435302 0.0371701 -0.00203668 0.0505408
internal_weight=42188.1 19752.1 16572.6 22436 11764.3 3179.5 10671.8
internal_count=120000 95694 71463 24306 17757 24231 6549
is_linear=0
shrinkage=0.0382273


Tree=26
num_leaves=8
num_cat=0
split_feature=18 0 7 4 18 0 18
split_gain=4005.59 1338.31 791.344 309.092 295.463 178.999 32.6765
threshold=1.5000000000000002 0.50387791050000008 2.5000000000000004 4843.5000000000009 4.5000000000000009 0.48835881400000009 10.500000000000002
decision_type=2 2 2 2 2 2 2
left_child=1 2 -1 -3 5 -2 -6
right_child=4 3 -4 -5 6 -7 -8
leaf_value=0.0095025676100770548 0.032031704553264539 0.036849406134356381 0.03914482488275331 0.024509430780997123 0.048495320722292054 0.043934011191625051 0.05349258384511546
leaf_weight=11664.310791522264 2719.8958766013384 5814.1289916932583 1483.3666774481535 6059.3839962333441 5868.6935722529888 5765.9784301668406 2870.476839363575
leaf_count=76302 4068 10602 5680 13347 3685 4962 1354
internal_value=0.0310159 0.0212492 0.0128473 0.0305524 0.0452027 0.0401197 0.0501376
internal_weight=42246.2 25021.2 13147.7 11873.5 17225 8485.87 8739.17
internal_count=120000 105931 81982 23949 14069 9030 5039
is_linear=0
shrinkage=0.0382273


Tree=27
num_leaves=8
num_cat=0
split_feature=18 0 7 0 18 0 18
split_gain=3868.57 1242.51 670.744 338.361 299.288 175.094 32.7994
threshold=1.5000000000000002 0.38466258750000004 2.5000000000000004 0.99999995000000019 4.5000000000000009 0.49634532450000007 7.5000000000000009
decision_type=2 2 2 2 2 2 2
left_child=1 2 -1 -3 5 -2 -6
right_child=4 3 -4 -5 6 -7 -8
leaf_value=0.0075504441113495553 0.030814078115115315 0.026244712790192481 0.036730871446029274 0.04874011357742869 0.046184750595462981 0.042561508492145718 0.050953459072118977
leaf_weight=10033.573899932206 2750.9607395231724 12809.438696980476 1300.1681183278561 1057.9163812249899 3781.9918972104788 5702.1211413145065 4844.4517251998186
leaf_count=70811 4098 28701 5124 1295 2541 4932 2498
internal_value=0.0298072 0.0202877 0.0108984 0.0279614 0.0438531 0.0387391 0.0488636
internal_weight=42280.6 25201.1 11333.7 13867.4 17079.5 8453.08 8626.44
internal_count=120000 105931 75935 29996 14069 9030 5039
is_linear=0
shrinkage=0.0382273


Tree=28
num_leaves=8
num_cat=0
split_feature=17 1 4 18 0 10 18
split_gain=3737.09 1043.38 713.835 672.92 345.224 202.478 60.1147
threshold=1.0000000180025095e-35 63.500000000000007 6100.5000000000009 3.5000000000000004 0.79640865800000016 1.0000000180025095e-35 6.5000000000000009
decision_type=2 2 2 2 2 2 2
left_child=1 2 -1 4 -2 -3 -5
right_child=3 5 -4 6 -6 -7 -8
leaf_value=0.027238429379200371 0.027491533631503369 0.0025589763830359334 0.011361239567087931 0.043447646931568461 0.040687133993821283 -0.019252239738213259 0.049329250388940461
leaf_weight=9870.6459982916713 6587.3916358351707 2391.429720453918 7125.6606207191944 4637.2000376284122 5174.9545070230961 840.41325818747282 5661.029571339488
leaf_count=37147 12767 17051 34316 3505 4990 7180 3044
internal_value=0.028664 0.0167963 0.0205821 0.0395457 0.0332975 -0.00311348 0.0466815
internal_weight=42288.7 20228.1 16996.3 22060.6 11762.3 3231.84 10298.2
internal_count=120000 95694 71463 24306 17757 24231 6549
is_linear=0
shrinkage=0.0382273


Tree=29
num_leaves=8
num_cat=0
split_feature=18 0 5 18 13 0 0
split_gain=3628.51 1132.26 686.418 303.549 258.837 170.899 34.4998
threshold=1.5000000000000002 0.61426273300000001 8.5000000000000018 4.5000000000000009 3294.6666666666674 0.48835881400000009 0.73254964450000015
decision_type=2 2 2 2 2 2 2
left_child=1 2 -1 5 -3 -2 -5
right_child=3 4 -4 6 -6 -7 -8
leaf_value=0.0031171280061664075 0.028375324181537091 0.033448687021000456 0.019415147259803714 0.042249175687065613 0.021219792578872208 0.040033221240992817 0.047942252786702534
leaf_weight=7049.0181743577123 2727.2745362222195 5945.4891631007195 8133.6586124226451 2083.2158476114273 4404.2111782282591 5646.220908626914 6303.4383309185505
leaf_count=46860 4068 10194 39576 1531 9301 4962 3508
internal_value=0.0275672 0.0184951 0.0118484 0.0413873 0.0282452 0.0362368 0.0465289
internal_weight=42292.5 25532.4 15182.7 16760.1 10349.7 8373.5 8386.65
internal_count=120000 105931 86436 14069 19495 9030 5039
is_linear=0
shrinkage=0.0382273


Tree=30
num_leaves=8
num_cat=0
split_feature=18 1 3 0 18 0 18
split_gain=3504.11 1090.88 639.485 334.035 306.616 167.07 35.2708
threshold=1.5000000000000002 57.500000000000007 0.56240385150000016 0.29443782450000006 4.5000000000000009 0.49634532450000007 10.500000000000002
decision_type=2 2 2 2 2 2 2
left_child=1 2 -1 -3 5 -2 -6
right_child=4 3 -4 -5 6 -7 -8
leaf_value=0.017144929005320636 0.027342549187432827 -0.0029308321151095833 0.031811110495510178 0.014123620103372593 0.043701580606475277 0.038855574959914978 0.049045946503423136
leaf_weight=12081.698870047927 2754.1132752001286 3814.9706052988768 6784.7352002263069 2996.2707629725337 5566.0652550160885 5573.3371682465076 2694.6930660605431
leaf_count=44374 4098 31836 20737 8984 3685 4932 1354
internal_value=0.0265322 0.0176851 0.0224194 0.00457158 0.0402266 0.0350485 0.0454458
internal_weight=42265.9 25677.7 18866.4 6811.24 16588.2 8327.45 8260.76
internal_count=120000 105931 65111 40820 14069 9030 5039
is_linear=0
shrinkage=0.0382273


Tree=31
num_leaves=8
num_cat=0
split_feature=21 0 5 18 13 15 18
split_gain=3397.97 935.804 673.868 362.018 287.275 194.252 62.6433
threshold=0.11651583710407241 0.097369557500000023 8.5000000000000018 3.5000000000000004 2600.2500000000005 0.05031345637500001 6.5000000000000009
decision_type=2 2 2 2 2 2 2
left_child=1 4 -3 5 -1 -2 -5
right_child=3 2 -4 6 -6 -7 -8
leaf_value=0.016476220768751399 0.021905482314226479 0.013135312026998377 0.027587036630205435 0.040048213025242647 -0.00175198818811072 0.035947917845465929 0.046197968605129175
leaf_weight=1782.3342505320907 1959.8436825424433 8946.8231923431158 9969.4597278013825 4416.2123934924603 4338.8022066503763 5432.8136045634747 5393.8389068543911
leaf_count=12722 3892 28788 26960 3444 35405 5746 3043
internal_value=0.0255353 0.0165479 0.020752 0.0386155 0.00355592 0.0322257 0.0434302
internal_weight=42240.1 25037.4 18916.3 17202.7 6121.14 7392.66 9810.05
internal_count=120000 103875 55748 16125 48127 9638 6487
is_linear=0
shrinkage=0.0382273


Tree=32
num_leaves=8
num_cat=0
split_feature=18 0 7 18 0 0 0
split_gain=3294.93 1001.87 633.247 307.597 247.527 160.373 37.3617
threshold=1.5000000000000002 0.61426273300000001 2.5000000000000004 4.5000000000000009 1.0094845440000002 0.73254964450000015 0.73254964450000015
decision_type=2 2 2 2 2 2 2
left_child=1 2 -1 5 -3 -2 -5
right_child=3 4 -4 6 -6 -7 -8
leaf_value=0.0072054323711543619 0.027186768500451885 0.023468429311668086 0.031478573972386903 0.038898457937613484 0.044288570627955104 0.037889923730549988 0.044946788714618283
leaf_weight=13744.239915654063 3831.134985268116 9535.1550312042236 1773.1212066933513 2000.4490953683853 914.6051951944828 4396.2649650424719 6001.6938801258802
leaf_count=80381 5268 18428 6055 1531 1067 3762 3508
internal_value=0.0245865 0.0161413 0.00997934 0.0380983 0.0252913 0.0329065 0.0434356
internal_weight=42196.7 25967.1 15517.4 16229.5 10449.8 8227.4 8002.14
internal_count=120000 105931 86436 14069 19495 9030 5039
is_linear=0
shrinkage=0.0382273


Tree=33
num_leaves=8
num_cat=0
split_feature=18 1 0 5 18 0 18
split_gain=3177.66 959.18 477.152 391.091 309.869 158.702 37.6269
threshold=1.5000000000000002 54.500000000000007 0.80731488150000008 8.5000000000000018 4.5000000000000009 0.48835881400000009 8.5000000000000018
decision_type=2 2 2 2 2 2 2
left_child=1 2 -1 -3 5 -2 -6
right_child=4 3 -4 -5 6 -7 -8
leaf_value=0.016074458185872116 0.024318972477869148 -0.0038402278886723717 0.0294210370370779 0.012488138369568684 0.04000593953682962 0.035625557206061913 0.045316789341310483
leaf_weight=11508.277296572924 2721.2843710780144 3941.6964379698038 5932.7688190042973 4698.6604094430804 4188.0817026048899 5452.2608008235693 3681.773300409317
leaf_count=48298 4068 25419 9496 22718 2988 4962 2051
internal_value=0.0236896 0.0154548 0.0206147 0.00503926 0.0370763 0.0318617 0.0424914
internal_weight=42124.8 26081.4 17441 8640.36 16043.4 8173.55 7869.86
internal_count=120000 105931 57794 48137 14069 9030 5039
is_linear=0
shrinkage=0.0382273


Tree=34
num_leaves=8
num_cat=0
split_feature=21 0 5 18 13 15 18
split_gain=3077.22 800.067 546.975 361.071 314.394 179.051 65.5467
threshold=0.11651583710407241 0.11470287650000001 8.5000000000000018 3.5000000000000004 2600.2500000000005 0.05031345637500001 6.5000000000000009
decision_type=2 2 2 2 2 2 2
left_child=1 4 -3 5 -1 -2 -5
right_child=3 2 -4 6 -6 -7 -8
leaf_value=0.015897431687541739 0.019347036680329683 0.011617400697124265 0.024711116585694904 0.037046795729448821 -0.0022663005777188595 0.032850390723516677 0.043477975728688723
leaf_weight=1976.6379253491759 1964.8521616756916 8860.4182180166245 9840.5740570947528 4253.0181631445885 4711.5804807394743 5329.5914610624313 5114.0118741989136
leaf_count=13599 3892 27174 25507 3444 37595 5746 3043
internal_value=0.0228267 0.0144494 0.0185075 0.035592 0.00310205 0.0292136 0.0405586
internal_weight=42050.7 25389.2 18701 16661.5 6688.22 7294.44 9367.03
internal_count=120000 103875 52681 16125 51194 9638 6487
is_linear=0
shrinkage=0.0382273


Tree=35
num_leaves=8
num_cat=0
split_feature=18 1 3 18 5 15 18
split_gain=2976.2 866.362 550.899 309.225 229.763 124.862 38.5913
threshold=1.5000000000000002 57.500000000000007 0.56240385150000016 4.5000000000000009 13.500000000000002 0.05031345637500001 10.500000000000002
decision_type=2 2 2 2 2 2 2
left_child=1 2 -1 5 -3 -2 -5
right_child=3 4 -4 6 -6 -7 -8
leaf_value=0.013455893284880265 0.023773774521261108 -0.0011402327071647449 0.02688695955521965 0.038834355797295148 0.015599206469097918 0.033626098310094665 0.044671582044746118
leaf_weight=12375.066989280283 2990.4310366213322 5411.9700131565332 6980.2347547933459 5148.149754434824 1538.8224285766482 5070.8939595520496 2455.5612588822842
leaf_count=44374 4285 33711 20737 3685 7109 4745 1354
internal_value=0.021998 0.0141425 0.0182998 0.0351894 0.00256594 0.0299718 0.0407203
internal_weight=41971.1 26306.1 19355.3 15665 6950.79 8061.32 7603.71
internal_count=120000 105931 65111 14069 40820 9030 5039
is_linear=0
shrinkage=0.0382273


Tree=36
num_leaves=8
num_cat=0
split_feature=17 0 18 5 0 5 18
split_gain=2874.64 720.082 619.853 520.348 286.686 242.444 67.721
threshold=1.0000000180025095e-35 0.50387791050000008 3.5000000000000004 8.5000000000000018 0.79640865800000016 10.500000000000002 6.5000000000000009
decision_type=2 2 2 2 2 2 2
left_child=1 3 4 -1 -2 -3 -4
right_child=2 5 6 -5 -6 -7 -8
leaf_value=-0.0034805600225508901 0.020275990374202305 0.015598734204055472 0.035214094152490306 0.012642239880966445 0.032458930022419417 0.029688871079887578 0.041826103364639662
leaf_weight=5577.3554261177778 6644.2413718253374 7098.2198802232742 4207.270403072238 6151.3907027840614 4909.1273867189884 2384.2137155234814 4924.5944015830755
leaf_count=42115 12767 15628 3505 33441 4990 4510 3044
internal_value=0.0211971 0.0113086 0.0313369 0.00497544 0.025453 0.0191419 0.0387804
internal_weight=41896.4 21211.2 20685.2 11728.7 11553.4 9482.43 9131.86
internal_count=120000 95694 24306 75556 17757 20138 6549
is_linear=0
shrinkage=0.0382273


Tree=37
num_leaves=8
num_cat=0
split_feature=18 0 7 18 1 0 0
split_gain=2770.89 817.792 559.453 309.607 244.198 149.609 43.0326
threshold=1.5000000000000002 0.69156422750000013 3.5000000000000004 4.5000000000000009 62.500000000000007 0.73254964450000015 0.73254964450000015
decision_type=2 2 2 2 2 2 2
left_child=1 2 -1 5 -3 -2 -5
right_child=3 4 -4 6 -6 -7 -8
leaf_value=0.006357900233831178 0.022661846701932362 0.02399169691495091 0.037083865833357169 0.034025976984389396 0.0024929101172832253 0.033169604263836756 0.040777190565276941
leaf_weight=16203.301578335464 3772.4640567004681 8527.6190638393164 914.71351605653763 1852.5025509893894 848.9828097820282 4172.1665133833885 5484.8415881097317
leaf_count=86819 5268 14480 2304 1531 2328 3762 3508
internal_value=0.020448 0.0129708 0.00800008 0.0334109 0.0220452 0.0281806 0.0390734
internal_weight=41776.6 26494.6 17118 15282 9376.6 7944.63 7337.34
internal_count=120000 105931 89123 14069 16808 9030 5039
is_linear=0
shrinkage=0.0382273


Tree=38
num_leaves=8
num_cat=0
split_feature=21 1 5 5 18 15 18
split_gain=2665.85 673.688 476.633 441.889 355.844 164.056 69.243
threshold=0.11651583710407241 54.500000000000007 8.5000000000000018 9.5000000000000018 3.5000000000000004 0.05031345637500001 6.5000000000000009
decision_type=2 2 2 2 2 2 2
left_child=1 3 -3 -1 5 -2 -6
right_child=4 2 -4 -5 6 -7 -8
leaf_value=0.011516381147635929 0.016295220782628437 -0.0073078712582766306 0.010791265319954614 0.024127962902328146 0.033496267533323291 0.02926162172534489 0.040320228513292256
leaf_weight=10059.243917301297 1968.5764163732529 3528.9065997824073 5348.9146305993199 6808.0127232670784 4029.4550571739674 5179.7783578932285 4737.6871255487204
leaf_count=36699 3892 24408 23464 19304 3444 5746 3043
internal_value=0.0197239 0.0121206 0.00359691 0.0166069 0.0320227 0.0256913 0.0371845
internal_weight=41660.6 25745.1 8877.82 16867.3 15915.5 7148.35 8767.14
internal_count=120000 103875 47872 56003 16125 9638 6487
is_linear=0
shrinkage=0.0382273


Tree=39
num_leaves=8
num_cat=0
split_feature=18 0 5 18 13 0 0
split_gain=2580.21 758.544 500.19 307.027 224.533 146.602 44.2176
threshold=1.5000000000000002 0.69156422750000013 13.500000000000002 4.5000000000000009 3242.2500000000005 0.95617542450000015 0.73254964450000015
decision_type=2 2 2 2 2 2 2
left_child=1 2 -1 5 -3 -2 -5
right_child=3 4 -4 6 -6 -7 -8
leaf_value=0.0038291195084163019 0.022744101083980992 0.025700745159629296 0.019904245432123185 0.032339076558922625 0.013727933740030448 0.033755209935246187 0.039295614917862931
leaf_weight=13714.433455593884 5128.6473275572062 5421.9117721915245 3563.4894532561302 1795.2984451502562 3962.3993358612061 2697.5956694334745 5278.3452984690666
leaf_count=74884 6699 8830 14239 1531 7978 2331 3508
internal_value=0.0190171 0.0118967 0.00714469 0.0317582 0.0206457 0.0265401 0.0375308
internal_weight=41562.1 26662.2 17277.9 14899.9 9384.31 7826.24 7073.64
internal_count=120000 105931 89123 14069 16808 9030 5039
is_linear=0
shrinkage=0.0382273


Tree=40
num_leaves=8
num_cat=0
split_feature=21 13 5 0 21 0 17
split_gain=2472.62 633.447 545.279 310.599 304.639 161.076 58.7706
threshold=0.11651583710407241 3294.6666666666674 14.500000000000002 0.78540600800000016 0.35147058823529415 0.73254964450000015 3.5000000000000004
decision_type=2 2 2 2 2 2 2
left_child=1 3 -3 -1 5 -2 -6
right_child=4 2 -4 -5 6 -7 -8
leaf_value=0.01305114241324508 0.019347184948105008 0.0014844668162625463 0.020646626730013343 0.025853659474571335 0.032059892798480323 0.030520805216496413 0.038640913498949027
leaf_weight=8293.4916393607855 3802.1576981246471 10727.681969977915 2720.2415578886867 4157.8032832741737 3694.4571530371904 3742.4574158191681 4301.4403625577688
leaf_count=36262 6202 52044 8807 6762 3334 3673 2916
internal_value=0.0183468 0.0111135 0.00536078 0.0173265 0.0304014 0.0248903 0.0356009
internal_weight=41439.7 25899.2 13447.9 12451.3 15540.5 7544.62 7995.9
internal_count=120000 103875 60851 43024 16125 9875 6250
is_linear=0
shrinkage=0.0382273


Tree=41
num_leaves=8
num_cat=0
split_feature=18 1 0 5 18 0 0
split_gain=2399.43 713.553 396.279 376.393 306.259 142.408 44.2466
threshold=1.5000000000000002 48.500000000000007 0.15907395850000003 15.500000000000002 4.5000000000000009 0.48835881400000009 0.73254964450000015
decision_type=2 2 2 2 2 2 2
left_child=1 3 -3 -1 5 -2 -6
right_child=4 2 -4 -5 6 -7 -8
leaf_value=0.015199350652356395 0.01785563729782888 -0.0039662706456970757 0.0097548625134753885 0.039503080493020953 0.030841606392135408 0.028773033622591048 0.037912150600706435
leaf_weight=12795.029968008399 2675.7676163911819 4991.4678978249431 8014.3086320459843 1004.2222025319934 1742.5468983799219 5030.828151717782 5077.5001011192799
leaf_count=40111 4068 39559 23852 2409 1531 4962 3508
internal_value=0.017694 0.0109134 0.00448886 0.0169684 0.0302055 0.0249829 0.0361063
internal_weight=41331.7 26805 13005.8 13799.3 14526.6 7706.6 6820.05
internal_count=120000 105931 63411 42520 14069 9030 5039
is_linear=0
shrinkage=0.0382273


Tree=42
num_leaves=8
num_cat=0
split_feature=18 0 7 0 18 0 22
split_gain=2314.17 787.055 483.479 233.731 165.809 112.534 16.3427
threshold=2.5000000000000004 0.61426273300000001 3.5000000000000004 1.0094845440000002 6.5000000000000009 0.91464207450000012 0.10250932784304277
decision_type=2 2 2 2 2 2 2
left_child=1 2 -1 -3 5 -2 -6
right_child=4 3 -4 -5 6 -7 -8
leaf_value=0.0048333811131188193 0.023548279191297056 0.017289591649201227 0.032604010397541537 0.035568606882729295 0.033350733991134113 0.033286190581543952 0.038889594765033363
leaf_weight=16760.636084377766 3713.9031811356544 11002.262319505215 968.94617548584938 1127.0110096931458 1025.7707884162664 3257.6440402418375 3353.5004542768002
leaf_count=86506 4293 19880 2315 1256 821 2706 2223
internal_value=0.0170703 0.0114849 0.00635136 0.0189884 0.0317627 0.0280992 0.0375934
internal_weight=41209.7 29858.9 17729.6 12129.3 11350.8 6971.55 4379.27
internal_count=120000 109957 88821 21136 10043 6999 3044
is_linear=0
shrinkage=0.0382273


Tree=43
num_leaves=8
num_cat=0
split_feature=18 1 18 5 0 0 18
split_gain=2233.55 607.41 553.286 381.142 291.04 225.101 72.7403
threshold=1.0000000180025095e-35 48.500000000000007 3.5000000000000004 15.500000000000002 0.15907395850000003 0.79640865800000016 7.5000000000000009
decision_type=2 2 2 2 2 2 2
left_child=1 3 5 -1 -3 -2 -4
right_child=2 4 6 -5 -6 -7 -8
leaf_value=0.012302928087742551 0.015903370325124372 -0.0061728909036870474 0.030281945037246367 0.039380967713629228 0.0067269853868760681 0.026888016530429212 0.037574095839813332
leaf_weight=10280.861191339791 6625.4732853472233 4289.1865930333734 4508.4545484036207 820.12521190196276 6323.7884936183691 4633.4626473635435 3601.7013625204563
leaf_count=35648 12767 37259 4051 2065 20722 4990 2498
internal_value=0.0164709 0.00805252 0.0259083 0.0143039 0.00151354 0.0204243 0.033521
internal_weight=41083.1 21714 19369.1 11101 10613 11258.9 8110.16
internal_count=120000 95694 24306 37713 57981 17757 6549
is_linear=0
shrinkage=0.0382273


Tree=44
num_leaves=8
num_cat=0
split_feature=18 0 7 0 18 0 18
split_gain=2146.02 706.273 436.149 217.75 165.689 109.981 16.7155
threshold=2.5000000000000004 0.61426273300000001 3.5000000000000004 1.0094845440000002 6.5000000000000009 0.91464207450000012 10.500000000000002
decision_type=2 2 2 2 2 2 2
left_child=1 2 -1 -3 5 -2 -6
right_child=4 3 -4 -5 6 -7 -8
leaf_value=0.0043053349696922033 0.022115832128838265 0.016079332783330843 0.030528785493657541 0.033800457341917105 0.033940134815051849 0.031856859574162885 0.038784379695135325
leaf_weight=16842.972170129418 3649.6332330703735 10987.917586863041 980.65922616422176 1116.2280718833208 2160.5018163919449 3164.3464808911085 2041.0976668745279
leaf_count=86506 4293 19880 2315 1256 1690 2706 1354
internal_value=0.0158976 0.0105879 0.00574841 0.017714 0.0303231 0.0266401 0.0362948
internal_weight=40943.4 29927.8 17823.6 12104.1 11015.6 6813.98 4201.6
internal_count=120000 109957 88821 21136 10043 6999 3044
is_linear=0
shrinkage=0.0382273


Tree=45
num_leaves=8
num_cat=0
split_feature=21 0 5 5 6 0 17
split_gain=2066.12 587.954 386.499 289.887 165.379 97.3105 67.3023
threshold=0.17028985507246377 0.22963553800000003 6.5000000000000009 8.5000000000000018 1.0000000180025095e-35 0.71271343600000014 3.5000000000000004
decision_type=2 2 2 2 2 2 2
left_child=1 2 -1 -3 5 -2 -6
right_child=4 3 -4 -5 6 -7 -8
leaf_value=-0.0090598996787784741 0.017092483363393862 0.0091870542399930828 0.007224746207173091 0.01875928106045462 0.028894331672254189 0.027759929697145549 0.03659278885366566
leaf_weight=2993.1667000427842 2027.5235365480185 9398.9902015775442 7382.6081215962768 9099.9450778067112 3335.7321103066206 3261.8252268284559 3313.1526376754045
leaf_count=24782 3081 22794 41261 19356 3098 3251 2377
internal_value=0.0153412 0.00981065 0.00252694 0.0138959 0.0287176 0.0236715 0.0327313
internal_weight=40812.9 28874.7 10375.8 18498.9 11938.2 5289.35 6648.88
internal_count=120000 108193 66043 42150 11807 6332 5475
is_linear=0
shrinkage=0.0382273


Tree=46
num_leaves=8
num_cat=0
split_feature=18 13 5 18 0 0 0
split_gain=1995.16 606.215 354.672 289.336 246.312 123.832 46.3199
threshold=1.5000000000000002 3294.6666666666674 14.500000000000002 4.5000000000000009 0.82821881500000016 0.48835881400000009 0.73254964450000015
decision_type=2 2 2 2 2 2 2
left_child=1 4 -3 5 -1 -2 -5
right_child=3 2 -4 6 -6 -7 -8
leaf_value=0.011007704029405381 0.014983981843749872 0.00034696911435392095 0.016524504256718319 0.027231238942810067 0.022116646874908209 0.025305311230327747 0.034772255025716216
leaf_weight=8987.3217636868358 2638.342266574502 11355.353141114116 2398.5707469582558 1610.7362971007824 4318.3985053896904 4774.1573491245508 4602.1925218701363
leaf_count=37517 4068 53275 8307 1531 6832 4962 3508
internal_value=0.0148032 0.00879612 0.00316835 0.0267329 0.0146133 0.021632 0.0328179
internal_weight=40685.1 27059.6 13753.9 13625.4 13305.7 7412.5 6212.93
internal_count=120000 105931 61582 14069 44349 9030 5039
is_linear=0
shrinkage=0.0382273


Tree=47
num_leaves=8
num_cat=0
split_feature=18 1 3 4 18 0 22
split_gain=1919.82 652.401 383.724 257.283 164.834 104.673 17.8049
threshold=2.5000000000000004 54.500000000000007 0.52878108550000014 3800.5000000000005 6.5000000000000009 0.91464207450000012 0.10250932784304277
decision_type=2 2 2 2 2 2 2
left_child=1 2 -1 -3 5 -2 -6
right_child=4 3 -4 -5 6 -7 -8
leaf_value=0.0091553047767890961 0.020167667555587403 0.012582920905318717 0.019998635430215381 -0.0021539804828485153 0.029852968994933803 0.029840401062639733 0.035921699290368432
leaf_weight=12572.714434407651 3557.2899773716927 2249.049133323133 7684.1809658035636 7516.6898397132754 930.44771106541157 3028.401700630784 3021.5707955956459
leaf_count=40185 4293 10157 20327 39288 821 2706 2223
internal_value=0.0142834 0.00935606 0.0132687 0.00124007 0.0283212 0.0246162 0.0344941
internal_weight=40560.3 30022.6 20256.9 9765.74 10537.7 6585.69 3952.02
internal_count=120000 109957 60512 49445 10043 6999 3044
is_linear=0
shrinkage=0.0382273


Tree=48
num_leaves=8
num_cat=0
split_feature=17 1 4 18 4 5 18
split_gain=1862.55 518.826 518.255 488.725 190.738 161.24 72.605
threshold=1.0000000180025095e-35 63.500000000000007 5556.5000000000009 3.5000000000000004 5982.5000000000009 13.500000000000002 7.5000000000000009
decision_type=2 2 2 2 2 2 2
left_child=1 2 -1 4 -2 -3 -5
right_child=3 5 -4 6 -6 -7 -8
leaf_value=0.015289281874163528 0.021657114206134531 -0.011497488541984425 0.0025038997240673685 0.026969171292266728 0.011369971118799593 0.0093440289187378001 0.034589506826133647
leaf_weight=9099.2192420437932 6703.5136176347733 2757.947184227407 9439.0049836188555 4198.432393014431 4339.5423361957073 675.13179087638855 3242.3715062141418
leaf_count=30850 9793 20687 40613 4051 7964 3544 2498
internal_value=0.013775 0.00625158 0.0087795 0.0227177 0.0176148 -0.00739866 0.0302904
internal_weight=40455.2 21971.3 18538.2 18483.9 11043.1 3433.08 7440.8
internal_count=120000 95694 71463 24306 17757 24231 6549
is_linear=0
shrinkage=0.0382273


Tree=49
num_leaves=8
num_cat=0
split_feature=18 0 7 0 18 0 22
split_gain=1770.81 593.485 394.94 203.148 162.84 103.614 18.1194
threshold=2.5000000000000004 0.61426273300000001 2.5000000000000004 1.0094845440000002 6.5000000000000009 0.91464207450000012 0.10250932784304277
decision_type=2 2 2 2 2 2 2
left_child=1 2 -1 -3 5 -2 -6
right_child=4 3 -4 -5 6 -7 -8
leaf_value=0.0021948886602951158 0.018879584045621539 0.013627681212735684 0.019860190494994604 0.030901387264949384 0.028550761052112662 0.028614507884282974 0.034792768671001818
leaf_weight=15971.527535758913 3496.6652583777905 10936.782169446349 2091.4714575856924 1094.4792040586472 895.49542188644409 2944.7540310770273 2894.5917076617479
leaf_count=82537 4293 19880 6284 1256 821 2706 2223
internal_value=0.0132927 0.00862177 0.00424046 0.0151994 0.0270311 0.0233306 0.0333192
internal_weight=40325.8 30094.3 18063 12031.3 10231.5 6441.42 3790.09
internal_count=120000 109957 88821 21136 10043 6999 3044
is_linear=0
shrinkage=0.0382273


Tree=50
num_leaves=8
num_cat=0
split_feature=18 1 18 5 10 0 18
split_gain=1705.95 474.815 464.893 335.067 244.614 181.561 72.0665
threshold=1.0000000180025095e-35 48.500000000000007 3.5000000000000004 8.5000000000000018 1.0000000180025095e-35 0.79640865800000016 7.5000000000000009
decision_type=2 2 2 2 2 2 2
left_child=1 3 5 -1 -3 -2 -4
right_child=2 4 6 -5 -6 -7 -8
leaf_value=0.0059256567016186569 0.012540572491704734 0.0028311905466310693 0.025720910361827821 0.019447859149103908 -0.011536311219114852 0.022585130035121491 0.033452118604541003
leaf_weight=6922.186535038054 6584.2775553166866 8581.1741758957505 4082.2185031622648 4367.3822718635201 2169.29896299541 4379.3854388147593 3106.395029604435
leaf_count=24545 12767 43800 4051 13168 14181 4990 2498
internal_value=0.0128291 0.00568174 0.0215072 0.0111569 -6.80964e-05 0.0165531 0.0290624
internal_weight=40192.3 22040 18152.3 11289.6 10750.5 10963.7 7188.61
internal_count=120000 95694 24306 37713 57981 17757 6549
is_linear=0
shrinkage=0.0382273


Tree=51
num_leaves=8
num_cat=0
split_feature=21 0 7 3 18 0 22
split_gain=1628.34 481.471 384.61 276.307 198.499 96.7121 19.1388
threshold=0.17028985507246377 0.41740527400000005 2.5000000000000004 0.5058726025000001 6.5000000000000009 0.73254964450000015 0.10250932784304277
decision_type=2 2 2 2 2 2 2
left_child=1 2 -1 -3 5 -2 -6
right_child=4 3 -4 -5 6 -7 -8
leaf_value=0.00035478560551294955 0.015398646936527984 0.0077868627269580826 0.019207720061729692 0.018374014952641547 0.027222403816112718 0.024546374289497915 0.033769851491604365
leaf_weight=12687.605753101408 2619.428905621171 8012.605531707406 1806.269103884697 6545.1149043887854 859.68894542753696 4760.2051240950823 2769.9909119307995
leaf_count=73761 3831 16993 5554 11885 820 4940 2216
internal_value=0.012381 0.00763658 0.00270447 0.012547 0.0249006 0.0212997 0.0322203
internal_weight=40060.9 29051.6 14493.9 14557.7 11009.3 7379.63 3629.68
internal_count=120000 108193 79315 28878 11807 8771 3036
is_linear=0
shrinkage=0.0382273


Tree=52
num_leaves=8
num_cat=0
split_feature=18 1 3 5 18 0 18
split_gain=1568.72 526.948 331.543 239.807 155.963 98.3641 19.4757
threshold=2.5000000000000004 54.500000000000007 0.56240385150000016 8.5000000000000018 6.5000000000000009 0.99999995000000019 10.500000000000002
decision_type=2 2 2 2 2 2 2
left_child=1 2 -1 -3 5 -2 -6
right_child=4 3 -4 -5 6 -7 -8
leaf_value=0.0075131182132471457 0.019758284203794101 -0.0064248875493981561 0.017712126205712365 0.0056314597089567424 0.028882692995682385 0.03417084050754067 0.034556502676891296
leaf_weight=13118.331295080483 5447.2323069870472 4296.4248902350664 7222.0431248694658 5493.1052724868059 1843.3516273796558 792.99562245607376 1716.4932641088963
leaf_count=41492 6381 25899 19020 23546 1690 618 1354
internal_value=0.0119487 0.00762731 0.0111345 0.000340154 0.0252341 0.0215906 0.0316199
internal_weight=39930 30129.9 20340.4 9789.53 9800.07 6240.23 3559.84
internal_count=120000 109957 60512 49445 10043 6999 3044
is_linear=0
shrinkage=0.0382273


Tree=53
num_leaves=8
num_cat=0
split_feature=17 13 18 5 5 4 0
split_gain=1510.31 438.693 426.136 315.101 245.922 175.062 73.0544
threshold=1.0000000180025095e-35 3294.6666666666674 3.5000000000000004 14.500000000000002 10.500000000000002 5982.5000000000009 0.73254964450000015
decision_type=2 2 2 2 2 2 2
left_child=1 4 5 -3 -1 -2 -4
right_child=2 3 6 -5 -6 -7 -8
leaf_value=0.0068963832332292509 0.019068136861258224 -0.0032420313746557607 0.021334663986270916 0.01379325355326041 0.019920559319451657 0.0091318820815052288 0.029937097177767266
leaf_weight=7907.6404470801353 6559.1631886214018 9437.0186330005527 2072.2466989904642 1907.2579257041216 2893.8990947529674 4284.0007604509592 4764.0392723530531
leaf_count=29923 9793 48898 2289 7201 9672 7964 4260
internal_value=0.0115237 0.00487223 0.0198555 -0.000377821 0.010386 0.0151426 0.02733
internal_weight=39825.3 22145.8 17679.4 11344.3 10801.5 10843.2 6836.29
internal_count=120000 95694 24306 56099 39595 17757 6549
is_linear=0
shrinkage=0.0382273


Tree=54
num_leaves=8
num_cat=0
split_feature=18 4 5 0 18 0 0
split_gain=1436.67 471.613 519.173 279.433 251.276 108.749 47.9672
threshold=1.5000000000000002 4843.5000000000009 13.500000000000002 0.99999995000000019 4.5000000000000009 0.48835881400000009 0.73254964450000015
decision_type=2 2 2 2 2 2 2
left_child=1 3 -3 -1 5 -2 -6
right_child=4 2 -4 -5 6 -7 -8
leaf_value=0.010771831613843675 0.010912895841525005 -0.0016708777147607292 0.014666215608082758 0.036773609163328988 0.022151729072204807 0.02079994817474317 0.03034100991523964
leaf_weight=10558.495009467006 2572.787102624774 12474.718515135348 3681.2597673088312 640.50432698428631 1426.4161645025015 4419.0715549886227 3935.4718705266714
leaf_count=36908 4068 56273 12104 646 1531 4962 3508
internal_value=0.0111173 0.00623078 0.00205175 0.0122594 0.0219372 0.0171621 0.0281631
internal_weight=39708.7 27355 16156 11199 12353.7 6991.86 5361.89
internal_count=120000 105931 68377 37554 14069 9030 5039
is_linear=0
shrinkage=0.0382273


Tree=55
num_leaves=8
num_cat=0
split_feature=18 0 7 16 18 0 18
split_gain=1373.38 499.351 358.328 193.783 154.752 96.1622 20.1475
threshold=2.5000000000000004 0.70211363250000014 3.5000000000000004 0.11882352941176472 6.5000000000000009 0.99999995000000019 10.500000000000002
decision_type=2 2 2 2 2 2 2
left_child=1 2 -1 -3 5 -2 -6
right_child=4 3 -4 -5 6 -7 -8
leaf_value=0.0019518335488481651 0.018006403560796309 0.01725329690537199 0.024512062348928759 0.0062070808892103115 0.027215737493936212 0.032593966428061553 0.033157780973124051
leaf_weight=18713.308155670762 5282.9094507098198 6900.0080018788576 1088.5247400403023 3497.3128746151924 1743.9189786016941 754.92709398269653 1612.3423777967691
leaf_count=89628 6381 11210 2418 6701 1690 618 1354
internal_value=0.0107251 0.00675416 0.00319217 0.0135379 0.0234902 0.0198311 0.0300717
internal_weight=39593.3 30199.2 19801.8 10397.3 9394.1 6037.84 3356.26
internal_count=120000 109957 92046 17911 10043 6999 3044
is_linear=0
shrinkage=0.0382273


Tree=56
num_leaves=8
num_cat=0
split_feature=17 13 0 5 5 21 17
split_gain=1322.12 387.481 363.086 270.279 223.311 167.841 90.0756
threshold=1.0000000180025095e-35 3294.6666666666674 0.91464207450000012 14.500000000000002 10.500000000000002 0.44949494949494956 2.5000000000000004
decision_type=2 2 2 2 2 2 2
left_child=1 4 5 -3 -1 -2 -4
right_child=2 3 6 -5 -6 -7 -8
leaf_value=0.0060272816225527331 0.011797314480292363 -0.0034077746071970853 0.021226022720157677 0.012289943935326739 0.018385709457077366 0.025482083455923444 0.030078812479313374
leaf_weight=7942.0484344288707 8891.4922015219927 9440.8897883072495 3778.0648003518581 1930.42551099509 2923.0069487243891 1535.9938587993383 3027.6241199672222
leaf_count=29923 15678 48898 4298 7201 9672 1582 2748
internal_value=0.0103492 0.00418987 0.0182965 -0.000742754 0.00935226 0.0138135 0.0251649
internal_weight=39469.5 22236.4 17233.2 11371.3 10865.1 10427.5 6805.69
internal_count=120000 95694 24306 56099 39595 17260 7046
is_linear=0
shrinkage=0.0382273


Tree=57
num_leaves=8
num_cat=0
split_feature=21 0 5 3 18 22 22
split_gain=1254.85 412.328 289.055 251.806 184.635 90.1285 20.8216
threshold=0.17028985507246377 0.22963553800000003 6.5000000000000009 0.51083852500000015 6.5000000000000009 0.26094807986690188 0.10250932784304277
decision_type=2 2 2 2 2 2 2
left_child=1 2 -1 -3 5 -2 -6
right_child=4 3 -4 -5 6 -7 -8
leaf_value=-0.010010554344034269 0.01399652758891312 0.0054702683579428103 0.0039327589947434627 0.014464438595788236 0.023592828473692835 0.022710450253094913 0.030816896792410935
leaf_weight=3038.5300048291683 3750.1811316162348 10416.236024424434 7623.4248903915286 8075.4237845912576 769.04115261882544 3229.1982161104679 2452.664653621614
leaf_count=24782 5210 25337 41261 16813 820 3561 2216
internal_value=0.00998402 0.00594613 -4.10034e-05 0.00939817 0.0215236 0.0180287 0.0290937
internal_weight=39354.7 29153.6 10662 18491.7 10201.1 6979.38 3221.71
internal_count=120000 108193 66043 42150 11807 8771 3036
is_linear=0
shrinkage=0.0382273


Tree=58
num_leaves=8
num_cat=0
split_feature=18 1 3 4 18 0 18
split_gain=1204.64 459.315 282.494 203.599 146.73 92.442 20.763
threshold=2.5000000000000004 54.500000000000007 0.56240385150000016 3800.5000000000005 6.5000000000000009 0.99999995000000019 10.500000000000002
decision_type=2 2 2 2 2 2 2
left_child=1 2 -1 -3 5 -2 -6
right_child=4 3 -4 -5 6 -7 -8
leaf_value=0.0059068227002339159 0.016510240984339643 0.0091847756243294016 0.015314888567703792 -0.0038343007855399587 0.025550333756503497 0.031133177840804993 0.031764131124198423
leaf_weight=13131.675756782293 5144.8477386087179 2286.4514812380075 7233.0292443409562 7554.9405474886298 1649.1342954039574 720.34812107682228 1512.8387297466397
leaf_count=41492 6381 10157 19020 39288 1690 618 1354
internal_value=0.00963342 0.00597149 0.00924842 -0.000809478 0.0218864 0.018307 0.0285247
internal_weight=39233.3 30206.1 20364.7 9841.39 9027.17 5865.2 3161.97
internal_count=120000 109957 60512 49445 10043 6999 3044
is_linear=0
shrinkage=0.0382273


Tree=59
num_leaves=8
num_cat=0
split_feature=17 1 18 5 0 10 0
split_gain=1156.86 385.712 358.289 294.258 164.549 129.64 47.4714
threshold=1.0000000180025095e-35 63.500000000000007 4.5000000000000009 1.0000000180025095e-35 0.99999995000000019 1.0000000180025095e-35 0.73254964450000015
decision_type=2 2 2 2 2 2 2
left_child=1 3 4 -1 -2 -3 -4
right_child=2 5 6 -5 -6 -7 -8
leaf_value=0.034159022756507416 0.0119212020241465 -0.0039135691880985138 0.019371908105266938 0.0049313837593356544 0.028196526707976767 -0.021072923559627258 0.027832362332049315
leaf_weight=517.43342465162277 10922.824855878949 2602.3097720295191 1330.9038913995028 18332.868654884398 990.03608536720276 854.6244378015399 3583.5876249223948
leaf_count=685 18329 17051 1531 70778 938 7180 3508
internal_value=0.0092898 0.00358132 0.0168572 0.00573394 0.0132741 -0.00815647 0.0255419
internal_weight=39134.6 22307.2 16827.4 18850.3 11912.9 3456.93 4914.49
internal_count=120000 95694 24306 71463 19267 24231 5039
is_linear=0
shrinkage=0.0382273


Tree=60
num_leaves=8
num_cat=0
split_feature=18 4 5 4 18 0 18
split_gain=1095.53 430.118 414.966 280.415 142.477 89.2229 20.9425
threshold=2.5000000000000004 4843.5000000000009 13.500000000000002 430.50000000000006 6.5000000000000009 0.91464207450000012 10.500000000000002
decision_type=2 2 2 2 2 2 2
left_child=1 3 -3 -1 5 -2 -6
right_child=4 2 -4 -5 6 -7 -8
leaf_value=-0.018871955697756838 0.013060072097859107 -0.001514854004472616 0.0123312420980865 0.012060934737674341 0.02449354623280988 0.022648346592562627 0.030855671238156423
leaf_weight=443.97114420682192 3209.9974323362112 13659.464846856892 4116.0350363627076 12002.772227428854 1591.5956065431237 2542.1373330950737 1450.6293037608266
leaf_count=1983 4293 58080 12728 37166 1690 2706 1354
internal_value=0.00896298 0.00550752 0.00169138 0.0109573 0.0208375 0.0172981 0.0275286
internal_weight=39016.6 30222.2 17775.5 12446.7 8794.36 5752.13 3042.22
internal_count=120000 109957 70808 39149 10043 6999 3044
is_linear=0
shrinkage=0.0382273


Tree=61
num_leaves=8
num_cat=0
split_feature=21 0 7 5 20 17 15
split_gain=1051.89 407.26 332.072 223.148 105.09 57.7231 55.2651
threshold=0.20942982456140355 0.48835881400000009 2.5000000000000004 14.500000000000002 1.0000000180025095e-35 4.5000000000000009 0.05213815592857144
decision_type=2 2 2 2 2 2 2
left_child=1 2 -1 -3 6 -6 -2
right_child=4 3 -4 -5 5 -7 -8
leaf_value=-0.00077636164107480234 0.0076004917878602857 0.0082541678812549715 0.015672552628150618 0.022615927977515805 0.021090583377047511 0.029827387166324874 0.018328992309234876
leaf_weight=14507.321772098541 936.71749556064606 11971.438195511699 2046.3626614287496 1821.4716475754976 3135.4786361455917 1709.1743777021766 2799.7553884238005
leaf_count=77894 1533 23352 5952 2703 3518 1643 3405
internal_value=0.00864116 0.00529956 0.00125717 0.010151 0.0204582 0.0241737 0.0156398
internal_weight=38927.7 30346.6 16553.7 13792.9 8581.13 4844.65 3736.47
internal_count=120000 109901 83846 26055 10099 5161 4938
is_linear=0
shrinkage=0.0382273


Tree=62
num_leaves=8
num_cat=0
split_feature=18 1 18 5 0 0 18
split_gain=1011.84 364.855 322.398 295.851 236.955 155.209 46.6034
threshold=1.0000000180025095e-35 43.500000000000007 4.5000000000000009 8.5000000000000018 0.34950852300000007 0.99999995000000019 10.500000000000002
decision_type=2 2 2 2 2 2 2
left_child=1 3 5 -1 -3 -2 -4
right_child=2 4 6 -5 -6 -7 -8
leaf_value=0.0040757620869801229 0.010853637186537164 -0.0054784581388607635 0.021544830306062218 0.019130772806414474 0.0044876225909747484 0.026882901012581204 0.029904215775093605
leaf_weight=5446.6888115778565 10817.622622638941 7330.4244495034218 3284.4617509841919 2935.4536566138268 6647.7557476013899 961.13618418574333 1388.1911101937294
leaf_count=18430 18329 52455 3685 8306 16503 938 1354
internal_value=0.00833693 0.00304258 0.0155328 0.00934833 -0.000738781 0.0121619 0.0240292
internal_weight=38811.7 22360.3 16451.4 8382.14 13978.2 11778.8 4672.65
internal_count=120000 95694 24306 26736 68958 19267 5039
is_linear=0
shrinkage=0.0382273


Tree=63
num_leaves=8
num_cat=0
split_feature=18 1 0 5 0 18 4
split_gain=952.85 368.918 266.832 249.052 208.836 75.8659 75.2152
threshold=1.5000000000000002 43.500000000000007 0.29443782450000006 8.5000000000000018 0.73254964450000015 4.5000000000000009 4697.5000000000009
decision_type=2 2 2 2 2 2 2
left_child=1 3 -3 -1 6 -6 -2
right_child=4 2 -4 -5 5 -7 -8
leaf_value=0.0055182432586274284 0.017219315647101781 -0.0043080911060049713 0.0052507629702863929 0.017912061629488378 0.017647191955190253 0.025900267996714407 0.0073255199262663188
leaf_weight=6680.8433810546994 1871.4432185068727 8026.0135905519128 9112.5369459912181 3671.4190525114536 3184.7578572481871 3333.3146520853043 2807.9256944581866
leaf_count=20537 2433 53988 21843 9563 3762 3508 4366
internal_value=0.00804491 0.00421607 0.000774335 0.0099139 0.0174449 0.0218683 0.0112828
internal_weight=38688.3 27490.8 17138.6 10352.3 11197.4 6518.07 4679.37
internal_count=120000 105931 75831 30100 14069 7270 6799
is_linear=0
shrinkage=0.0382273


Tree=64
num_leaves=8
num_cat=0
split_feature=17 1 4 18 0 5 18
split_gain=907.701 328.111 378.987 302.241 147.341 124.686 46.5954
threshold=1.0000000180025095e-35 63.500000000000007 5556.5000000000009 4.5000000000000009 0.99999995000000019 8.5000000000000018 10.500000000000002
decision_type=2 2 2 2 2 2 2
left_child=1 2 -1 4 -2 -3 -5
right_child=3 5 -4 6 -6 -7 -8
leaf_value=0.010238789549600386 0.010132280455807425 -0.015422220961117013 -0.00058221593245952265 0.020528676217633615 0.025913024416780634 -0.00086455360583687969 0.029042620042889076
leaf_weight=9311.9832278564572 10748.230497449636 1707.5168131291866 9611.4178538173437 3188.4658007323742 940.17429295182228 1731.6006342470646 1333.7923160046339
leaf_count=30850 18329 14253 40613 3685 938 9978 1354
internal_value=0.00776152 0.00276871 0.00474271 0.014649 0.011402 -0.00809279 0.0230407
internal_weight=38573.2 22362.5 18923.4 16210.7 11688.4 3439.12 4522.26
internal_count=120000 95694 71463 24306 19267 24231 5039
is_linear=0
shrinkage=0.0382273


Tree=65
num_leaves=8
num_cat=0
split_feature=17 1 4 0 4 10 17
split_gain=851.456 304.004 349.283 295.939 136.652 118.214 74.2417
threshold=1.0000000180025095e-35 63.500000000000007 5556.5000000000009 0.91464207450000012 5617.5000000000009 1.0000000180025095e-35 2.5000000000000004
decision_type=2 2 2 2 2 2 2
left_child=1 2 -1 4 -2 -3 -5
right_child=3 5 -4 6 -6 -7 -8
leaf_value=0.0098220916909665928 0.014245125302402893 -0.0037893599570486456 -0.00056007701265349855 0.017227282766697754 0.005280904675017053 -0.020336547189498861 0.025780317876921831
leaf_weight=9335.5033813044429 5443.2522025555372 2587.4667167663574 9609.4435409829021 3509.9448321908712 4573.086256980896 834.24790032953024 2570.7060846611857
leaf_count=30850 8634 17051 40613 4298 8626 7180 2748
internal_value=0.00748702 0.00266194 0.00455598 0.0141913 0.0101525 -0.00782447 0.0208438
internal_weight=38463.7 22366.7 18944.9 16097 10016.3 3421.71 6080.65
internal_count=120000 95694 71463 24306 17260 24231 7046
is_linear=0
shrinkage=0.0382273


Tree=66
num_leaves=8
num_cat=0
split_feature=18 0 7 1 18 0 18
split_gain=826.015 364.709 358.245 178.285 128.451 81.3028 19.7603
threshold=2.5000000000000004 0.78540600800000016 3.5000000000000004 62.500000000000007 6.5000000000000009 0.99999995000000019 10.500000000000002
decision_type=2 2 2 2 2 2 2
left_child=1 2 -1 -3 5 -2 -6
right_child=4 3 -4 -5 6 -7 -8
leaf_value=0.00041368990914418449 0.012901873033692203 0.012569200741494965 0.022108158970502341 -0.0064913920715410191 0.021690938618650502 0.027437596042326248 0.028214234264217861
leaf_weight=20217.601543165743 4814.186519920826 7993.7230419069529 1176.9230846762657 787.6897447258234 1449.3670877590775 636.7280230820179 1283.7087610065937
leaf_count=92313 6381 13069 2492 2083 1690 618 1354
internal_value=0.00722112 0.00429974 0.00160726 0.0108594 0.0179925 0.0146005 0.0247563
internal_weight=38359.9 30175.9 21394.5 8781.41 8183.99 5450.91 2733.08
internal_count=120000 109957 94805 15152 10043 6999 3044
is_linear=0
shrinkage=0.0382273


Tree=67
num_leaves=8
num_cat=0
split_feature=21 7 4 18 22 15 22
split_gain=785.873 354.009 387.695 123.606 121.281 55.575 24.8392
threshold=0.20942982456140355 3.5000000000000004 4843.5000000000009 6.5000000000000009 0.27312216791219085 0.05031345637500001 0.10250932784304277
decision_type=2 2 2 2 2 2 2
left_child=1 2 -1 5 -3 -2 -5
right_child=3 4 -4 6 -6 -7 -8
leaf_value=0.0084896331145607896 0.0065145855864881903 0.011006009227779771 -0.00051749312328017931 0.01776505112975631 0.032990293497324678 0.016227093973078068 0.02642678278396754
leaf_weight=11920.345063075423 1079.2005991190672 704.92026699334383 16860.912466704845 637.88656483590603 764.6651531457901 4262.2741239070892 2022.6254959478974
leaf_count=38307 1747 1759 68767 812 1068 5337 2203
internal_value=0.00696562 0.00414753 0.00321302 0.0176189 0.0224473 0.014265 0.0243512
internal_weight=38252.8 30250.8 28781.3 8001.99 1469.59 5341.47 2660.51
internal_count=120000 109901 107074 10099 2827 7084 3015
is_linear=0
shrinkage=0.0382273


Tree=68
num_leaves=8
num_cat=0
split_feature=18 0 7 1 18 0 1
split_gain=752.805 398.277 340.295 157.5 60.9298 37.8432 19.9444
threshold=3.5000000000000004 0.79640865800000016 3.5000000000000004 62.500000000000007 10.500000000000002 0.99999995000000019 24.500000000000004
decision_type=2 2 2 2 2 2 2
left_child=1 2 -1 -3 5 -2 -6
right_child=4 3 -4 -5 6 -7 -8
leaf_value=0.00063745017703665087 0.01614739414941849 0.012470282941871117 0.021091169166318095 -0.0046359286000117461 0.00110462679005292 0.026266949484538542 0.028232893736665252
leaf_weight=21648.526280343533 3591.8550667986274 8945.8898922950029 1257.5661173015833 862.27749188244343 40.978921458125114 636.08297540992498 1191.9679939672351
leaf_count=94538 4528 14185 2562 2166 71 667 1283
internal_value=0.00671388 0.00452059 0.00176051 0.0109664 0.0198527 0.0176708 0.0273315
internal_weight=38175.1 32714.3 22906.1 9808.17 5460.88 4227.94 1232.95
internal_count=120000 113451 97100 16351 6549 5195 1354
is_linear=0
shrinkage=0.0382273


Tree=69
num_leaves=8
num_cat=0
split_feature=18 5 5 3 0 4 0
split_gain=716.891 285.075 369.01 334.392 252.657 124.268 70.5747
threshold=1.0000000180025095e-35 8.5000000000000018 1.0000000180025095e-35 0.56240385150000016 0.91464207450000012 5617.5000000000009 0.99999995000000019
decision_type=2 2 2 2 2 2 2
left_child=1 2 -1 -3 5 -2 -6
right_child=4 3 -4 -5 6 -7 -8
leaf_value=0.028432699521606347 0.012963383719246976 0.00071201389920783737 -0.0034080307265239224 0.014543053041509647 0.016418318386411695 0.0043554630340375761 0.025771173730545782
leaf_weight=557.65799157321453 5351.7023271024227 5881.3356106951833 11443.994140520692 4515.5880939811468 4161.4290901720524 4521.6790185943246 1646.1306691542268
leaf_count=803 8634 25788 54616 14487 5311 8626 1735
internal_value=0.00647443 0.00208577 -0.0019282 0.00671923 0.0127431 0.00902138 0.01907
internal_weight=38079.5 22398.6 12001.7 10396.9 15680.9 9873.38 5807.56
internal_count=120000 95694 55419 40275 24306 17260 7046
is_linear=0
shrinkage=0.0382273


Tree=70
num_leaves=8
num_cat=0
split_feature=18 4 5 4 18 22 1
split_gain=691.501 340.536 334.24 257.536 60.1113 34.8472 19.545
threshold=3.5000000000000004 4843.5000000000009 13.500000000000002 430.50000000000006 10.500000000000002 0.25526713330073886 24.500000000000004
decision_type=2 2 2 2 2 2 2
left_child=1 3 -3 -1 5 -2 -6
right_child=4 2 -4 -5 6 -7 -8
leaf_value=-0.018987410733513801 0.013203382723330725 -0.0019317168675919612 0.010095314782639232 0.0097540924825169316 0.00045110444668528172 0.020227327564171557 0.027495984939240267
leaf_weight=471.73645649850368 2000.3542579635978 14605.352879926562 4391.9168128445745 13192.743560858071 40.427702970802784 2136.08493450284 1151.0800486207008
leaf_count=2029 2664 59591 13115 38716 71 2531 1283
internal_value=0.00624238 0.00415929 0.000848831 0.00876165 0.0190118 0.0168312 0.0265786
internal_weight=37989.7 32661.7 18997.3 13664.5 5327.95 4136.44 1191.51
internal_count=120000 113451 72706 40745 6549 5195 1354
is_linear=0
shrinkage=0.0382273


Tree=71
num_leaves=8
num_cat=0
split_feature=18 1 3 5 18 22 22
split_gain=656.103 312.379 224.415 214.316 112.498 63.6174 22.6202
threshold=2.5000000000000004 43.500000000000007 0.56240385150000016 8.5000000000000018 6.5000000000000009 0.29186279382117236 0.10250932784304277
decision_type=2 2 2 2 2 2 2
left_child=1 3 -3 -1 5 -2 -6
right_child=4 2 -4 -5 6 -7 -8
leaf_value=0.0045883793715564627 0.0090481522260337389 -0.0029333612469941229 0.0056276023488461306 0.015560156010849278 0.016187120707800571 0.017539786060603954 0.024631601400158607
leaf_weight=7386.1099344342947 2968.6247919648886 11388.539171896875 7370.2331891879439 4016.3614830970764 614.77294573932886 2279.8976439684629 1901.4711076319218
leaf_count=21511 4234 50785 27639 10022 821 2765 2223
internal_value=0.00601449 0.00346334 0.000430218 0.00845319 0.0159239 0.0127372 0.0225696
internal_weight=37926 30161.2 18758.8 11402.5 7764.77 5248.52 2516.24
internal_count=120000 109957 78424 31533 10043 6999 3044
is_linear=0
shrinkage=0.0382273


Tree=72
num_leaves=8
num_cat=0
split_feature=0 17 7 4 0 3 18
split_gain=643.852 246.758 238.436 251.034 163.244 153.297 26.3381
threshold=0.70211363250000014 2.5000000000000004 3.5000000000000004 3710.5000000000005 0.99999995000000019 0.46556920750000008 10.500000000000002
decision_type=2 2 2 2 2 2 2
left_child=2 4 3 -1 -2 -4 -3
right_child=1 6 5 -5 -6 -7 -8
leaf_value=0.0080350574312151087 0.0077846851948007766 0.019211273039259475 -0.01079010355880607 -0.001528552279315538 0.021415331608196985 0.024391418117097753 0.026846161795706085
leaf_weight=5319.7603918462992 10457.113289684057 2116.6667098999023 220.266402117908 16299.339333243668 1463.6200183779001 1012.8154915496707 962.08291993290186
leaf_count=20350 18402 2608 655 73131 1840 1890 1124
internal_value=0.00579665 0.0119505 0.00175739 0.000824781 0.0094585 0.0181063 0.0215983
internal_weight=37851.7 14999.5 22852.2 21619.1 11920.7 1233.08 3078.75
internal_count=120000 23974 96026 93481 20242 2545 3732
is_linear=0
shrinkage=0.0382273


Tree=73
num_leaves=8
num_cat=0
split_feature=17 13 0 5 5 4 0
split_gain=611.786 258.035 219.209 200.841 179.089 108.328 66.3023
threshold=1.0000000180025095e-35 3294.6666666666674 0.91464207450000012 14.500000000000002 10.500000000000002 5617.5000000000009 0.99999995000000019
decision_type=2 2 2 2 2 2 2
left_child=1 4 5 -3 -1 -2 -4
right_child=2 3 6 -5 -6 -7 -8
leaf_value=0.0027683713083853714 0.011730107845874915 -0.0047703420352641808 0.0149157396445317 0.0086515644789370624 0.013732722833540975 0.0036463764638510481 0.024197695299585389
leaf_weight=8031.9945285022259 5273.0598059147596 9458.8316722139716 4013.8956527411938 1968.0315987467766 2986.2755903303623 4481.4545894265175 1563.2214723974466
leaf_count=29923 8634 48898 5311 7201 9672 8626 1735
internal_value=0.00558682 0.00156617 0.0114729 -0.00245862 0.00574019 0.00801637 0.017518
internal_weight=37776.8 22445.1 15331.6 11426.9 11018.3 9754.51 5577.12
internal_count=120000 95694 24306 56099 39595 17260 7046
is_linear=0
shrinkage=0.0382273


Tree=74
num_leaves=8
num_cat=0
split_feature=0 7 17 0 3 4 15
split_gain=585.477 283.063 251.603 180.076 161.889 117.956 43.221
threshold=0.85863740100000008 3.5000000000000004 1.0000000180025095e-35 0.99999995000000019 0.62284667550000006 430.50000000000006 0.4999999750000001
decision_type=2 2 2 2 2 2 2
left_child=1 2 -1 5 -3 -2 -5
right_child=3 4 -4 6 -6 -7 -8
leaf_value=-0.0014634081119314808 -0.026653440699084201 0.0015095033720590491 0.0066289184764127367 0.024341607541465429 0.028911566805124789 0.010782301065373034 0.006976152636770077
leaf_weight=16358.631690271199 124.53858970105648 489.677445307374 8548.3731660544872 1951.8733994141221 883.49556344747543 9103.669498719275 234.792574390769
leaf_count=83763 321 1234 15643 2294 1448 14904 393
internal_value=0.00538547 0.0022456 0.00131399 0.0126142 0.0191412 0.0102767 0.0224776
internal_weight=37695.1 26280.2 24907 11414.9 1373.17 9228.21 2186.67
internal_count=120000 102088 99406 17912 2682 15225 2687
is_linear=0
shrinkage=0.0382273


Tree=75
num_leaves=8
num_cat=0
split_feature=18 0 3 1 18 1 1
split_gain=569.447 302.977 220.167 191.328 56.7162 31.7482 19.7277
threshold=3.5000000000000004 0.29979028450000006 0.51083852500000015 43.500000000000007 10.500000000000002 53.500000000000007 24.500000000000004
decision_type=2 2 2 2 2 2 2
left_child=1 3 -3 -1 5 -2 -6
right_child=4 2 -4 -5 6 -7 -8
leaf_value=0.0060466642535570254 0.017046987560643552 0.0028660726671614054 0.011063192850900025 -0.0041756808302455478 -0.0020969171778548422 0.009247428089682418 0.025787828689880703
leaf_weight=3776.2295759990811 2907.8381019234657 11307.888425126672 8304.9621896594763 9179.0847536548972 38.390682190656662 1034.6848526149988 1062.74116332829
leaf_count=16970 3695 24528 15798 56155 71 1500 1283
internal_value=0.00519161 0.00334054 0.00633716 -0.00119602 0.017144 0.0150005 0.0248155
internal_weight=37611.8 32568.2 19612.9 12955.3 5043.65 3942.52 1101.13
internal_count=120000 113451 40326 73125 6549 5195 1354
is_linear=0
shrinkage=0.0382273


Tree=76
num_leaves=8
num_cat=0
split_feature=18 0 7 16 18 0 1
split_gain=537.691 289.357 272.875 147.005 55.2584 31.1103 18.9884
threshold=3.5000000000000004 0.79640865800000016 2.5000000000000004 0.11882352941176472 10.500000000000002 1.0485188630000002 24.500000000000004
decision_type=2 2 2 2 2 2 2
left_child=1 2 -1 -3 5 -2 -6
right_child=4 3 -4 -5 6 -7 -8
leaf_value=-0.00062918978796813589 0.013445240118222672 0.012023685136672548 0.012402806227409326 0.0018960391037427379 -0.0020136840601943785 0.02484002964797637 0.02533185807449714
leaf_weight=20272.710122689605 3512.282835945487 6537.9952086955309 2655.3508647233248 3081.6326058804989 38.454351924359798 389.06939047574997 1040.9414976388216
leaf_count=90149 4749 10524 6951 5827 71 446 1283
internal_value=0.00500485 0.00321484 0.000880147 0.00877939 0.0167016 0.0145825 0.0243575
internal_weight=37528.4 32547.7 22928.1 9619.63 4980.75 3901.35 1079.4
internal_count=120000 113451 97100 16351 6549 5195 1354
is_linear=0
shrinkage=0.0382273


Tree=77
num_leaves=8
num_cat=0
split_feature=18 1 4 18 5 22 22
split_gain=508.264 250.224 341.59 135.51 126.544 85.5869 21.9717
threshold=1.5000000000000002 63.500000000000007 6065.5000000000009 6.5000000000000009 5.5000000000000009 0.28515504283185922 0.10250932784304277
decision_type=2 2 2 2 2 2 2
left_child=1 2 -1 5 -3 -2 -5
right_child=3 4 -4 6 -6 -7 -8
leaf_value=0.0075804913553851666 0.0062783562891239458 -0.018155301266054358 -0.0017722874311921506 0.013830088292149153 -0.002668449907784083 0.014455083398137735 0.02245985643465517
leaf_weight=13609.300672933459 4384.9218605980277 1036.2269015982747 9826.9086290001869 574.29102712124586 3011.4314481988549 3262.921073243022 1742.0332504585385
leaf_count=41490 6776 8117 38624 821 17700 4249 2223
internal_value=0.00482456 0.00214298 0.00365884 0.0122209 -0.00663373 0.00976715 0.0203213
internal_weight=37448 27483.9 23436.2 9964.17 4047.66 7647.84 2316.32
internal_count=120000 105931 80114 14069 25817 11025 3044
is_linear=0
shrinkage=0.0382273


Tree=78
num_leaves=8
num_cat=0
split_feature=18 1 3 3 18 1 1
split_gain=482.554 269.148 251.731 140.827 52.9005 30.8477 18.3759
threshold=3.5000000000000004 57.500000000000007 0.56240385150000016 805.50000000000011 10.500000000000002 53.500000000000007 24.500000000000004
decision_type=2 2 2 2 2 2 2
left_child=1 2 -1 -3 5 -2 -6
right_child=4 3 -4 -5 6 -7 -8
leaf_value=0.002115340298202012 0.015852729062680673 -0.0010542095962628078 0.010266880913215664 -0.015964074387930099 -0.0025460745562062128 0.0080586164614267885 0.02450809807626653
leaf_weight=15567.357595264912 2815.4479553773999 7283.0859170854092 8591.3577120676637 1060.3875553458929 38.050398379564285 1008.3713545799255 1003.0813962742686
leaf_count=48280 3695 36749 22465 5957 71 1500 1283
internal_value=0.00465066 0.00296994 0.00501425 -0.00294939 0.0158789 0.0137978 0.0235191
internal_weight=37367.1 32502.2 24158.7 8343.47 4864.95 3823.82 1041.13
internal_count=120000 113451 70745 42706 6549 5195 1354
is_linear=0
shrinkage=0.0382273


Tree=79
num_leaves=8
num_cat=0
split_feature=17 5 5 3 18 4 15
split_gain=468.028 249.979 322.996 254.499 171.168 110.214 38.3393
threshold=1.0000000180025095e-35 8.5000000000000018 1.0000000180025095e-35 0.56240385150000016 4.5000000000000009 430.50000000000006 0.042818216845238101
decision_type=2 2 2 2 2 2 2
left_child=1 2 -1 -3 5 -2 -6
right_child=4 3 -4 -5 6 -7 -8
leaf_value=0.025703765134670049 -0.034374573739127633 7.4961848675877339e-05 -0.0041535869221919026 0.012105485409963986 0.0084094191706924979 0.007723112597971777 0.018650891606200374
leaf_weight=555.02207703888416 91.482422769069672 5897.2022217214108 11435.269731983542 4553.6918439865112 647.71333639323711 11070.435929559171 3056.9661981537938
leaf_count=803 254 25788 54616 14487 950 19013 4089
internal_value=0.00448045 0.000995515 -0.0027712 0.00531704 0.00974091 0.00737761 0.0168607
internal_weight=37307.8 22441.2 11990.3 10450.9 14866.6 11161.9 3704.68
internal_count=120000 95694 55419 40275 24306 19267 5039
is_linear=0
shrinkage=0.0382273


Tree=80
num_leaves=8
num_cat=0
split_feature=0 7 4 0 4 22 15
split_gain=462.274 245.739 215.802 168.065 109.611 109.513 42.7475
threshold=0.85863740100000008 3.5000000000000004 4843.5000000000009 0.99999995000000019 430.50000000000006 0.27312216791219085 0.33333331666666671
decision_type=2 2 2 2 2 2 2
left_child=1 2 -1 4 -2 -3 -5
right_child=3 5 -4 6 -6 -7 -8
leaf_value=0.0051056603908252521 -0.027103730867929044 0.0072042979531180568 -0.0021999959325431592 0.023430711904075835 0.0090897523839089719 0.028879254146068331 0.0099231294476280207
leaf_weight=9734.8667876943946 123.83656062185764 730.92223739624023 15032.179278112948 1653.8654126673937 8885.5840613245964 638.03504395484924 432.17157901823521
leaf_count=34452 321 1779 64954 2005 14904 903 682
internal_value=0.00431847 0.00154307 0.000671558 0.010856 0.00859181 0.0173086 0.0206332
internal_weight=37231.5 26136 24767 11095.5 9009.42 1368.96 2086.04
internal_count=120000 102088 99406 17912 15225 2682 2687
is_linear=0
shrinkage=0.0382273


Tree=81
num_leaves=8
num_cat=0
split_feature=0 1 3 0 4 18 4
split_gain=433.67 209.198 258.934 189.524 175.677 136.711 41.0148
threshold=0.70211363250000014 28.500000000000004 0.31952716150000005 0.99999995000000019 939.50000000000011 4.5000000000000009 10630.500000000002
decision_type=2 2 2 2 2 2 2
left_child=1 4 -3 5 -1 -2 -5
right_child=3 2 -4 6 -6 -7 -8
leaf_value=-0.023066234561056425 0.0057879722991386624 -0.0054332953649709565 0.0032344753356770267 0.021171139217051282 0.022685624644328314 0.016702625213387681 -0.0063481054854587953
leaf_weight=140.02795188128948 10357.249625325203 7977.66365455091 13659.819268286228 1980.5307618379593 981.43161676824093 2000.9176737144589 82.370605312287807
leaf_count=647 18490 40597 52056 2523 2726 2797 164
internal_value=0.00415954 0.000873119 3.86816e-05 0.00934602 0.0169705 0.00755536 0.0200719
internal_weight=37180 22758.9 21637.5 14421.1 1121.46 12358.2 2062.9
internal_count=120000 96026 92653 23974 3373 21287 2687
is_linear=0
shrinkage=0.0382273


Tree=82
num_leaves=8
num_cat=0
split_feature=17 5 7 1 22 13 4
split_gain=419.035 236.762 296.865 283.414 160.737 122.397 102.926
threshold=1.0000000180025095e-35 8.5000000000000018 1.0000000180025095e-35 39.500000000000007 0.29186279382117236 1708.5833333333337 939.50000000000011
decision_type=2 2 2 2 2 2 2
left_child=1 2 -1 -3 5 -2 -6
right_child=4 3 -4 -5 6 -7 -8
leaf_value=0.0025787959645449218 0.013426756229384147 0.017819111867696639 -0.0095041770421662661 0.0018532209608112106 -0.015145101184292778 0.0028869257745217599 0.014517958134642515
leaf_weight=6494.6250938102603 2165.41780641675 2011.3177114576101 5477.0830346494913 8450.7001430466771 175.77778053283691 6277.5879616066813 6062.9601371660829
leaf_count=27317 3327 5260 28102 35015 391 11946 8642
internal_value=0.0040079 0.000721946 -0.00294924 0.00492287 0.00902877 0.00559032 0.0136818
internal_weight=37115.5 22433.7 11971.7 10462 14681.7 8443.01 6238.74
internal_count=120000 95694 55419 40275 24306 15273 9033
is_linear=0
shrinkage=0.0382273


Tree=83
num_leaves=8
num_cat=0
split_feature=18 13 4 3 18 1 1
split_gain=396.28 241.57 249.635 229.462 50.8698 28.7795 18.4771
threshold=3.5000000000000004 2200.2500000000005 939.50000000000011 0.56240385150000016 10.500000000000002 53.500000000000007 24.500000000000004
decision_type=2 2 2 2 2 2 2
left_child=1 2 -1 -3 5 -2 -6
right_child=4 3 -4 -5 6 -7 -8
leaf_value=-0.012706541050395537 0.01426820108438152 -0.0028093945278227358 0.0089342321615557153 0.0053406372470254813 -0.0046045798304572118 0.0066075077996348829 0.023078322910468692
leaf_weight=848.04660765826702 2696.5999084338546 14162.525748312473 9542.4094561710954 7844.1408800929785 36.552716821432114 976.57632298022509 941.60806719213724
leaf_count=3319 3695 56822 25772 27538 71 1500 1283
internal_value=0.00386194 0.00236386 0.00716779 9.56499e-05 0.0142958 0.0122318 0.0220433
internal_weight=37048.5 32397.1 10390.5 22006.7 4651.34 3673.18 978.161
internal_count=120000 113451 29091 84360 6549 5195 1354
is_linear=0
shrinkage=0.0382273


Tree=84
num_leaves=8
num_cat=0
split_feature=0 7 4 0 3 4 15
split_gain=386.784 223.232 189.127 147.805 139.252 96.7731 41.5272
threshold=0.85863740100000008 3.5000000000000004 4843.5000000000009 0.99999995000000019 0.46556920750000008 430.50000000000006 0.33333331666666671
decision_type=2 2 2 2 2 2 2
left_child=1 2 -1 5 -3 -2 -5
right_child=3 4 -4 6 -6 -7 -8
leaf_value=0.0045135165177783909 -0.025795504166828701 -0.01050519529559882 -0.0023309216096978448 0.021925709404536003 0.021810657393075566 0.0081203061024970932 0.0084327736384940937
leaf_weight=9725.0840165689588 124.54351954162121 235.35785721987486 14997.595350340009 1595.6363977864385 1129.9255926758051 8766.1256253942847 421.67871244251728
leaf_count=34452 321 684 64954 2005 1998 14904 682
internal_value=0.00371997 0.0011925 0.000361464 0.00976467 0.0162392 0.00764476 0.0191062
internal_weight=36995.9 26088 24722.7 10908 1365.28 8890.67 2017.32
internal_count=120000 102088 99406 17912 2682 15225 2687
is_linear=0
shrinkage=0.0382273


Tree=85
num_leaves=8
num_cat=0
split_feature=17 14 14 18 22 14 22
split_gain=371.63 226.976 238.598 149.898 109.609 97.9387 20.2422
threshold=1.0000000180025095e-35 4280702.0000000009 3993.5453565810003 6.5000000000000009 0.29186279382117236 20097184.750000004 0.10250932784304277
decision_type=2 2 2 2 2 2 2
left_child=1 2 -1 4 -2 -3 -5
right_child=3 5 -4 6 -6 -7 -8
leaf_value=-0.00046649219285593147 0.003765143658455589 -0.016118554866795899 0.0094625941627110022 0.011325172696815416 0.011081266898728995 0.0014686077588820588 0.01993101678835699
leaf_weight=15615.06275382638 7349.1956062242389 1596.6445008069277 4572.093268699944 535.54411774873734 5048.078067548573 651.45888404548168 1580.124262906611
leaf_count=67798 13743 8982 16559 821 7519 2355 2223
internal_value=0.00358272 0.000499202 0.00178235 0.0083494 0.00674432 -0.0110224 0.0177536
internal_weight=36948.2 22435.3 20187.2 14512.9 12397.3 2248.1 2115.67
internal_count=120000 95694 84357 24306 21262 11337 3044
is_linear=0
shrinkage=0.0382273


Tree=86
num_leaves=8
num_cat=0
split_feature=0 5 4 0 3 18 15
split_gain=352.81 175.079 207.222 163.813 117.03 112.99 39.4628
threshold=0.70211363250000014 13.500000000000002 3710.5000000000005 0.99999995000000019 0.67430021000000007 4.5000000000000009 0.33333331666666671
decision_type=2 2 2 2 2 2 2
left_child=1 2 -1 5 -3 -2 -5
right_child=3 4 -4 6 -6 -7 -8
leaf_value=0.0056042201801679691 0.0049434870295372024 0.0024230653385155696 -0.0037470651047425479 0.02115800539658181 0.014654534401325508 0.015085114286627069 0.0079337539309193225
leaf_weight=4711.363527148962 10273.989999078214 3148.2567641735077 13066.602891542017 1566.2558661177754 1794.6931316331029 1902.5803663209081 418.01765188574791
leaf_count=18380 18490 11093 61877 2005 4676 2797 682
internal_value=0.00345228 0.000500587 -0.00126884 0.00818819 0.00686441 0.00652828 0.018373
internal_weight=36881.8 22720.9 17778 14160.8 4942.95 12176.6 1984.27
internal_count=120000 96026 80257 23974 15769 21287 2687
is_linear=0
shrinkage=0.0382273


Tree=87
num_leaves=8
num_cat=0
split_feature=18 13 4 5 18 1 3
split_gain=338.439 216.425 180.978 163.305 100.787 66.8776 17.797
threshold=1.5000000000000002 3294.6666666666674 600.50000000000011 14.500000000000002 7.5000000000000009 56.500000000000007 0.03508612450000001
decision_type=2 2 2 2 2 2 2
left_child=1 2 -1 -3 5 -2 -6
right_child=4 3 -4 -5 6 -7 -8
leaf_value=-0.017947163250548005 0.009669563196616833 -0.0041277431339588142 0.0054769176294078119 0.0066588662026736585 0.0069692135592108531 0.0011943055385085759 0.01939907470739699
leaf_weight=500.31529007107019 5933.5000175461173 11354.984561242163 13065.738966912031 2503.0532670691609 189.71573279052973 1765.4352844506502 1509.6438324302435
leaf_count=2208 8614 53275 42141 8307 328 2957 2170
internal_value=0.00332603 0.00118057 0.00461284 -0.0021794 0.00958632 0.00772618 0.0180122
internal_weight=36822.4 27424.1 13566.1 13858 9398.29 7698.94 1699.36
internal_count=120000 105931 44349 61582 14069 11571 2498
is_linear=0
shrinkage=0.0382273


Tree=88
num_leaves=8
num_cat=0
split_feature=0 3 16 3 0 1 15
split_gain=323.1 202.979 332.425 272.942 129.935 90.5792 55.1887
threshold=0.86899471900000014 0.31952716150000005 0.063164893617021281 4.012763596000001 1.0236848390000002 64.500000000000014 0.4999999750000001
decision_type=2 2 2 2 2 2 2
left_child=1 2 -1 -3 5 -2 -6
right_child=4 3 -4 -5 6 -7 -8
leaf_value=0.0020657575186216804 0.0081917541166743619 0.0064607244710982691 -0.012509272819572613 -0.0046758330649395545 0.022596211608189691 -0.007246255527589094 0.00099691658031208314
leaf_weight=6048.7205683216453 8476.5817547217011 12160.377699017525 3676.6115067899227 4372.173617683351 1232.164390578866 594.20441517978907 201.09621587395668
leaf_count=25538 14083 36925 19367 20662 1554 1503 368
internal_value=0.00320445 0.000937747 -0.00344437 0.00351555 0.00887063 0.00718034 0.0195661
internal_weight=36761.9 26257.9 9725.33 16532.6 10504 9070.79 1433.26
internal_count=120000 102492 44905 57587 17508 15586 1922
is_linear=0
shrinkage=0.0382273


Tree=89
num_leaves=8
num_cat=0
split_feature=18 5 5 3 18 22 3
split_gain=313.514 215.584 279.84 197.87 129.072 97.2868 20.9966
threshold=1.0000000180025095e-35 8.5000000000000018 1.0000000180025095e-35 0.56240385150000016 6.5000000000000009 0.29186279382117236 0.03508612450000001
decision_type=2 2 2 2 2 2 2
left_child=1 2 -1 -3 5 -2 -6
right_child=4 3 -4 -5 6 -7 -8
leaf_value=0.023335610000209277 0.00322638774699567 -0.00036148320893189182 -0.0045342941565948633 0.010230084268348183 0.0046790662113990822 0.010160923103408414 0.017741115073181525
leaf_weight=551.85095831751823 7300.1179136410356 5897.2127079963684 11388.366767808795 4578.6758069694042 199.6470789462328 4968.7400663048029 1824.712652310729
leaf_count=803 13743 25788 54616 14487 357 7519 2687
internal_value=0.00308652 0.000265542 -0.00324592 0.00426783 0.00751063 0.00603489 0.0164534
internal_weight=36709.3 22416.1 11940.2 10475.9 14293.2 12268.9 2024.36
internal_count=120000 95694 55419 40275 24306 21262 3044
is_linear=0
shrinkage=0.0382273


Tree=90
num_leaves=8
num_cat=0
split_feature=18 1 5 0 18 1 14
split_gain=296.899 215.239 171.528 163.174 44.7258 28.2346 18.0583
threshold=3.5000000000000004 43.500000000000007 10.500000000000002 0.29443782450000006 10.500000000000002 33.500000000000007 154.97799020100004
decision_type=2 2 2 2 2 2 2
left_child=1 2 -1 -3 5 -2 -6
right_child=4 3 -4 -5 6 -7 -8
leaf_value=0.0033389869424219681 0.017451637153755528 -0.0045278693424963675 0.014384095635517838 0.0024048316423468212 0.0076365700190303872 0.0086810804283657013 0.02230622389402517
leaf_weight=9611.7848074659705 661.48178143799305 9073.4505589604378 2613.2085144072771 10946.601675443351 146.837217874825 2839.404587008059 750.26642374694347
leaf_count=26790 876 55898 6068 24695 258 4319 1096
internal_value=0.00297422 0.00170339 0.00570014 -0.000737203 0.0122913 0.010339 0.0199069
internal_weight=36643 32245 12225 20020.1 4397.99 3500.89 897.104
internal_count=120000 113451 32858 80593 6549 5195 1354
is_linear=0
shrinkage=0.0382273


Tree=91
num_leaves=8
num_cat=0
split_feature=0 7 1 3 0 1 22
split_gain=283.525 192.05 174.261 127.278 121.987 83.1026 48.3422
threshold=0.86899471900000014 3.5000000000000004 28.500000000000004 0.62284667550000006 1.0236848390000002 64.500000000000014 1589.731872305
decision_type=2 2 2 2 2 2 2
left_child=1 2 -1 -3 5 -2 -6
right_child=4 3 -4 -5 6 -7 -8
leaf_value=0.013452656436129742 0.0075492325569621963 -0.00095183112786480597 -0.0007835446903544643 0.023396288010495463 0.020444109797872659 -0.0072631630792537247 -0.01018733436486449
leaf_weight=1327.3249187022448 8397.9457218125463 488.07862273603678 23496.58247257024 878.11397896707058 1321.3360705934465 592.42259700596333 79.748161338269711
leaf_count=3739 14083 1236 96063 1454 1751 1503 171
internal_value=0.00286561 0.000745729 -2.22607e-05 0.0146987 0.00820835 0.00657306 0.0186997
internal_weight=36581.6 26190.1 24823.9 1366.19 10391.5 8990.37 1401.08
internal_count=120000 102492 99802 2690 17508 15586 1922
is_linear=0
shrinkage=0.0382273


Tree=92
num_leaves=8
num_cat=0
split_feature=19 3 3 22 13 5 4
split_gain=277.692 203.479 391.092 116.758 99.2053 98.4195 93.9067
threshold=1.0000000180025095e-35 805.50000000000011 0.56240385150000016 0.29186279382117236 1708.5833333333337 6.5000000000000009 939.50000000000011
decision_type=2 2 2 2 2 2 2
left_child=1 2 -1 4 -2 -3 -5
right_child=3 5 -4 6 -6 -7 -8
leaf_value=-0.0020708681740167203 0.011216068205606444 -0.02231497737672734 0.0096737459719523061 -0.016819773462498886 0.0015654829967153506 -0.0053883312616959484 0.011881588164708887
leaf_weight=14102.501626454294 2084.0549339577556 710.20656353235245 5866.8674043789506 171.43164084851742 6149.1530592665076 1711.7622227370739 5743.1019823737442
leaf_count=63443 3327 4169 20202 391 11946 7880 8642
internal_value=0.00275954 0.000110542 0.00137967 0.00695201 0.00400848 -0.0103529 0.0110493
internal_weight=36539.1 22391.3 19969.4 14147.7 8233.21 2421.97 5914.53
internal_count=120000 95694 83645 24306 15273 12049 9033
is_linear=0
shrinkage=0.0382273


Tree=93
num_leaves=8
num_cat=0
split_feature=18 1 5 3 18 1 1
split_gain=264.903 197.933 196.327 127.636 42.967 26.5484 18.0652
threshold=3.5000000000000004 57.500000000000007 20.500000000000004 805.50000000000011 10.500000000000002 33.500000000000007 24.500000000000004
decision_type=2 2 2 2 2 2 2
left_child=1 2 -1 -3 5 -2 -6
right_child=4 3 -4 -5 6 -7 -8
leaf_value=0.0026245176508931192 0.016624449937743202 -0.0018250090089895392 0.023014808901151904 -0.016129346990506461 -0.0080264757859029815 0.0080214721764357427 0.020256646364660413
leaf_weight=23174.665324352682 645.28264474868774 7242.5009195059538 711.07655730843544 1042.6612108871341 34.277987197041512 2795.9038108810782 836.43141444027424
leaf_count=69243 876 36749 1502 5957 71 4319 1283
internal_value=0.00265829 0.00146572 0.00323168 -0.00362543 0.0115557 0.00963536 0.0191419
internal_weight=36482.8 32170.9 23885.7 8285.16 4311.9 3441.19 870.709
internal_count=120000 113451 70745 42706 6549 5195 1354
is_linear=0
shrinkage=0.0382273


Tree=94
num_leaves=8
num_cat=0
split_feature=0 5 1 1 0 4 15
split_gain=253.131 174.812 183.577 155.507 113.548 81.2247 52.0569
threshold=0.86899471900000014 13.500000000000002 28.500000000000004 84.500000000000014 1.0236848390000002 430.50000000000006 0.4999999750000001
decision_type=2 2 2 2 2 2 2
left_child=1 2 -1 -3 5 -2 -6
right_child=4 3 -4 -5 6 -7 -8
leaf_value=0.012822857204887314 -0.024087708657628184 0.0059328818948757769 -0.0020079800178940143 0.071844399026676012 0.02091860105719108 0.0065043386056124466 -0.00032072529993460385
leaf_weight=1301.9612908065319 128.53748627752066 5536.2605528533459 19256.193451367319 52.655448272824287 1175.8581878356636 8790.0295291990042 196.85361474752426
leaf_count=3669 327 16627 82051 145 1554 15259 368
internal_value=0.00256002 0.000561109 -0.00106864 0.00655583 0.00763856 0.00606302 0.0178731
internal_weight=36438.3 26147.1 20558.2 5588.92 10291.3 8918.57 1372.71
internal_count=120000 102492 85720 16772 17508 15586 1922
is_linear=0
shrinkage=0.0382273


Tree=95
num_leaves=8
num_cat=0
split_feature=21 5 3 5 18 1 3
split_gain=246.269 231.508 245.093 230.683 59.9741 41.581 17.3372
threshold=0.22474747474747478 8.5000000000000018 0.5058726025000001 1.0000000180025095e-35 7.5000000000000009 32.500000000000007 0.03508612450000001
decision_type=2 2 2 2 2 2 2
left_child=1 3 -3 -1 5 -2 -6
right_child=4 2 -4 -5 6 -7 -8
leaf_value=0.021896388386050025 0.013784164632367295 -0.00045449832597152588 0.0091526607468803995 -0.0033497937770279045 0.0046841947089986471 0.0052268655312739561 0.017327748703813591
leaf_weight=549.32501831650734 1081.6670176237822 7852.5892048552632 7671.3482783511281 14120.760414846241 179.155522339046 3563.7682900205255 1383.0845422819257
leaf_count=803 1485 29089 20439 60045 327 5660 2152
internal_value=0.00246481 0.00103911 0.00429304 -0.00240422 0.00939919 0.00721979 0.0158784
internal_weight=36401.7 30194 15523.9 14670.1 6207.68 4645.44 1562.24
internal_count=120000 110376 49528 60848 9624 7145 2479
is_linear=0
shrinkage=0.0382273


Tree=96
num_leaves=8
num_cat=0
split_feature=1 17 5 3 3 22 22
split_gain=235.294 171.145 162.945 149.493 124.358 99.9749 58.4975
threshold=55.500000000000007 1.0000000180025095e-35 19.500000000000004 805.50000000000011 0.56240385150000016 0.25526713330073886 0.71218699382323525
decision_type=2 2 2 2 2 2 2
left_child=1 2 -1 4 -2 -3 -5
right_child=3 5 -4 6 -6 -7 -8
leaf_value=0.00104267146275067 -0.0036583051144042401 0.0047549019108736237 0.022254971807131509 0.015585242447436701 0.0058986784298870444 0.012317000585667034 -0.016391620675552727
leaf_weight=14854.955294080079 6381.6615738421679 5674.7125196903944 548.58630158752203 89.401136465370655 2890.8295727111399 4647.125863917172 1264.1351672336459
leaf_count=52152 31329 10190 1295 627 11155 6871 6381
